{"learner":{"attributes":{"best_iteration":"99","best_ntree_limit":"100","scikit_learn":"{\"use_label_encoder\": false, \"n_estimators\": 100, \"objective\": \"binary:logistic\", \"max_depth\": null, \"max_leaves\": null, \"max_bin\": null, \"grow_policy\": null, \"learning_rate\": null, \"verbosity\": null, \"booster\": null, \"tree_method\": null, \"gamma\": null, \"min_child_weight\": null, \"max_delta_step\": null, \"subsample\": null, \"sampling_method\": null, \"colsample_bytree\": null, \"colsample_bylevel\": null, \"colsample_bynode\": null, \"reg_alpha\": null, \"reg_lambda\": null, \"scale_pos_weight\": null, \"base_score\": null, \"missing\": NaN, \"num_parallel_tree\": null, \"random_state\": null, \"n_jobs\": null, \"monotone_constraints\": null, \"interaction_constraints\": null, \"importance_type\": null, \"gpu_id\": null, \"validate_parameters\": null, \"predictor\": null, \"enable_categorical\": false, \"max_cat_to_onehot\": null, \"eval_metric\": null, \"early_stopping_rounds\": null, \"callbacks\": null, \"classes_\": [0, 1], \"n_classes_\": 2, \"_estimator_type\": \"classifier\"}"},"feature_names":["url_length","use_of_ip","path_length","path_to_urllength_ratio","count_dir","fd_length","count_embed_domian","short_url","count-lowercase","lower_to_urllength_ratio","count_uppercase","upper_to_urllength_ratio","count-digits","digit_to_urllength_ratio","count-letters","letters_to_urllength_ratio","count-specchar","specchar_to_urllength_ratio","count-www","count.","count@","count%","count?","count-","count=","count#","count;","count_","http_or_https","entropy","tld_length","tld_count","host_length","host_count-","host_count_","sub_domain_count","sus_url","days_since_reg","days_since_exp"],"feature_types":["int","int","int","float","int","int","int","int","int","float","int","float","int","float","int","float","int","float","int","int","int","int","int","int","int","int","int","int","int","float","int","int","int","int","int","int","int","int","int"],"gradient_booster":{"model":{"gbtree_model_param":{"num_parallel_tree":"1","num_trees":"100","size_leaf_vector":"0"},"tree_info":[0,0,0,0,0,0,0,0,0,0,0,0,0,0,0,0,0,0,0,0,0,0,0,0,0,0,0,0,0,0,0,0,0,0,0,0,0,0,0,0,0,0,0,0,0,0,0,0,0,0,0,0,0,0,0,0,0,0,0,0,0,0,0,0,0,0,0,0,0,0,0,0,0,0,0,0,0,0,0,0,0,0,0,0,0,0,0,0,0,0,0,0,0,0,0,0,0,0,0,0],"trees":[{"base_weights":[-1.268955E-4,1.9985207E0,-1.0437385E0,-1.4883461E0,1.8192252E0,-1.6962385E0,1.9226305E0,-1.6190476E0,1.97603E0,4.3317974E-1,-1.7514864E0,1.9683168E0,-0E0,-1.7931035E0,2.2222222E-1,-1E0,1.9879789E0,-8.7323946E-1,1.04E0,-1.7853802E0,6.2184876E-1,1.2E0,-1.2E0,-1.8518518E0,-5E-1,2.2222222E-1,1.9939668E0,8.235294E-1,-1.3103448E0,1.5897436E0,-8.108108E-1,-1.808321E0,1.7777778E0,1.654321E0,-1.4285715E0],"categories":[],"categories_nodes":[],"categories_segments":[],"categories_sizes":[],"default_left":[1,0,1,1,1,1,1,1,1,1,1,0,1,1,0,0,1,1,1,1,1,0,0,0,0,0,0,0,0,0,0,0,0,0,0],"id":0,"left_children":[1,-1,3,5,7,9,11,13,15,17,19,-1,21,23,-1,-1,25,27,29,31,33,-1,-1,-1,-1,-1,-1,-1,-1,-1,-1,-1,-1,-1,-1],"loss_changes":[8.220706E3,0E0,3.2985525E3,1.5929219E3,1.9108875E2,2.4940332E2,1.1353058E1,5.446087E0,1.3856323E1,4.391549E1,1.6683984E2,0E0,7.2E0,1.7560577E-1,0E0,0E0,3.0750732E0,1.4243692E1,3.9444157E1,1.6927197E2,6.5344124E1,0E0,0E0,0E0,0E0,0E0,0E0,0E0,0E0,0E0,0E0,0E0,0E0,0E0,0E0],"parents":[2147483647,0,0,2,2,3,3,4,4,5,5,6,6,7,7,8,8,9,9,10,10,12,12,13,13,16,16,17,17,18,18,19,19,20,20],"right_children":[2,-1,4,6,8,10,12,14,16,18,20,-1,22,24,-1,-1,26,28,30,32,34,-1,-1,-1,-1,-1,-1,-1,-1,-1,-1,-1,-1,-1,-1],"split_conditions":[8.25E1,5.9955627E-1,5E-1,2.15E1,1.05E1,1.22724265E-1,6.5E0,4.5E0,1.5E0,1.25E1,5E-1,5.9049505E-1,4.4E1,1.14E2,6.666667E-2,-3E-1,2.5E0,8.671171E-2,5.6915E3,5E-1,3.585E2,3.6E-1,-3.6E-1,-5.555556E-1,-1.5E-1,6.666667E-2,5.9819007E-1,2.4705884E-1,-3.9310345E-1,4.769231E-1,-2.4324325E-1,-5.424963E-1,5.3333336E-1,4.9629632E-1,-4.2857146E-1],"split_indices":[0,0,18,32,32,17,23,19,19,32,33,0,5,0,0,0,2,17,37,26,38,0,0,0,0,0,0,0,0,0,0,0,0,0,0],"split_type":[0,0,0,0,0,0,0,0,0,0,0,0,0,0,0,0,0,0,0,0,0,0,0,0,0,0,0,0,0,0,0,0,0,0,0],"sum_hessian":[3.93925E3,1.351E3,2.58825E3,2.24075E3,3.475E2,2.1125E3,1.2825E2,1.475E1,3.3275E2,5.325E1,2.05925E3,1.2525E2,3E0,1.35E1,1.25E0,1E0,3.3175E2,1.675E1,3.65E1,2.0305E3,2.875E1,1.5E0,1.5E0,1.25E1,1E0,1.25E0,3.305E2,3.25E0,1.35E1,2.825E1,8.25E0,2.018E3,1.25E1,1.925E1,9.5E0],"tree_param":{"num_deleted":"0","num_feature":"39","num_nodes":"35","size_leaf_vector":"0"}},{"base_weights":[1.6773294E-3,1.5478034E0,-7.942626E-1,-1.1309873E0,1.4047289E0,-1.2885035E0,1.486161E0,-1.2587594E0,1.5292529E0,1.6355695E-1,-1.3403869E0,1.5233978E0,-0E0,-1.4052083E0,1.853133E-1,1.853133E-1,1.5341537E0,-9.2656153E-1,7.5490314E-1,-1.3672911E0,9.0391517E-1,1.005434E0,-1.005434E0,-4.233444E-1,-1.464116E0,5.869241E-1,-1.2835172E0,1.4873776E0,-6.516839E-1,-1.3944876E0,4.664293E-1,-1.2478675E0,1.8667427E0],"categories":[],"categories_nodes":[],"categories_segments":[],"categories_sizes":[],"default_left":[1,0,1,1,1,1,1,1,1,1,1,0,1,1,0,0,0,1,1,1,1,0,0,0,0,0,0,0,0,0,0,0,0],"id":1,"left_children":[1,-1,3,5,7,9,11,13,15,17,19,-1,21,23,-1,-1,-1,25,27,29,31,-1,-1,-1,-1,-1,-1,-1,-1,-1,-1,-1,-1],"loss_changes":[4.4811846E3,0E0,1.7815571E3,8.615327E2,1.0794751E2,1.4843701E2,6.57666E0,3.3958569E0,1.7300415E0,4.5026184E1,1.1593701E2,0E0,4.9583125E0,1.6548157E-1,0E0,0E0,0E0,1.4060495E1,4.7466904E1,9.428345E1,5.0197163E1,0E0,0E0,0E0,0E0,0E0,0E0,0E0,0E0,0E0,0E0,0E0,0E0],"parents":[2147483647,0,0,2,2,3,3,4,4,5,5,6,6,7,7,8,8,9,9,10,10,12,12,13,13,17,17,18,18,19,19,20,20],"right_children":[2,-1,4,6,8,10,12,14,16,18,20,-1,22,24,-1,-1,-1,26,28,30,32,-1,-1,-1,-1,-1,-1,-1,-1,-1,-1,-1,-1],"split_conditions":[8.25E1,4.6434104E-1,5E-1,2.15E1,1.05E1,1.2748387E-1,6.5E0,4.5E0,2.5E0,1.25E1,1.5E0,4.5701936E-1,4.4E1,7E0,5.5593994E-2,5.5593994E-2,4.6024612E-1,-5.317998E0,4.6275E3,5E-1,5E-1,3.0163023E-1,-3.0163023E-1,-1.2700333E-1,-4.3923482E-1,1.7607723E-1,-3.8505518E-1,4.462133E-1,-1.9550519E-1,-4.1834632E-1,1.3992879E-1,-3.7436026E-1,5.6002283E-1],"split_indices":[0,0,18,32,32,17,23,19,2,32,22,0,5,5,0,0,0,29,37,33,36,0,0,0,0,0,0,0,0,0,0,0,0],"split_type":[0,0,0,0,0,0,0,0,0,0,0,0,0,0,0,0,0,0,0,0,0,0,0,0,0,0,0,0,0,0,0,0,0],"sum_hessian":[3.6393948E3,1.2365099E3,2.402885E3,2.0842205E3,3.1866455E2,1.9663792E3,1.1784121E2,1.3826032E1,3.048385E2,6.776225E1,1.898617E3,1.1493635E2,2.9048615E0,1.2577419E1,1.2486122E0,1.2486122E0,3.035899E2,2.3631618E1,4.413063E1,1.8765125E3,2.2104456E1,1.4524307E0,1.4524307E0,1.1752409E0,1.1402179E1,4.386918E0,1.9244701E1,2.89813E1,1.5149331E1,1.849324E3,2.7188438E1,6.741691E0,1.5362764E1],"tree_param":{"num_deleted":"0","num_feature":"39","num_nodes":"33","size_leaf_vector":"0"}},{"base_weights":[4.7577387E-3,1.3438045E0,-6.628715E-1,-9.763446E-1,1.0913236E0,-1.1212412E0,1.0360363E0,-1.1122711E0,1.3495085E0,2.9689336E0,-1.1345801E0,-1.0592594E0,1.2851453E0,-1.2157989E0,8.47238E-1,1.4539455E0,5.980719E-1,-3.2724398E-1,-1.1975268E0,-1.2261605E0,2.1581706E-1,-1.3911504E-1,1.3009694E0,-1.304294E0,6.1636865E-2,1.7161611E0,1.3332908E0,-1.1557345E0,1.0907143E0,1.5213994E0,-1.1815335E0,-1.2264616E0,3.9831728E-1,3.1535238E-1,1.3253068E0,-3.9241782E-1,-1.362699E0,2.763192E-1,-1.8632564E-1,2.482673E0,1.3206414E0,1.2963798E0,-9.5072705E-1],"categories":[],"categories_nodes":[],"categories_segments":[],"categories_sizes":[],"default_left":[1,0,1,1,1,1,1,1,1,0,1,1,1,1,0,1,1,1,1,0,0,0,1,1,1,1,0,0,1,0,0,0,0,0,0,0,0,0,0,0,0,0,0],"id":2,"left_children":[1,-1,3,5,7,9,11,13,15,-1,17,19,21,23,-1,25,27,29,31,-1,-1,-1,33,35,37,39,-1,-1,41,-1,-1,-1,-1,-1,-1,-1,-1,-1,-1,-1,-1,-1,-1],"loss_changes":[2.772367E3,0E0,1.139E3,5.132388E2,1.8026254E2,9.277319E1,6.320041E1,7.8262215E0,2.1237915E1,0E0,8.265137E1,3.060336E0,2.577591E0,3.723957E0,0E0,5.5145874E0,3.242786E1,1.9062878E2,7.0468506E1,0E0,0E0,0E0,2.1071472E0,1.0729866E0,2.1347448E-1,1.9228226E1,0E0,0E0,1.3272633E1,0E0,0E0,0E0,0E0,0E0,0E0,0E0,0E0,0E0,0E0,0E0,0E0,0E0,0E0],"parents":[2147483647,0,0,2,2,3,3,4,4,5,5,6,6,7,7,8,8,10,10,11,11,12,12,13,13,15,15,16,16,17,17,18,18,22,22,23,23,24,24,25,25,28,28],"right_children":[2,-1,4,6,8,10,12,14,16,-1,18,20,22,24,-1,26,28,30,32,-1,-1,-1,34,36,38,40,-1,-1,42,-1,-1,-1,-1,-1,-1,-1,-1,-1,-1,-1,-1,-1,-1],"split_conditions":[8.25E1,4.0314135E-1,1.75E1,5E-1,1.5E0,1.3E1,1.05E1,5E-1,3.445E2,8.9068013E-1,1.05E1,5.5E0,2.1527778E-2,-4.281901E0,2.541714E-1,2.15E1,3.46E2,5E-1,5E-1,-3.6784816E-1,6.474512E-2,-4.1734513E-2,1E0,1.05E1,-4.203272E0,5E-1,3.9998725E-1,-3.4672037E-1,5E-1,4.5641983E-1,-3.5446006E-1,-3.6793852E-1,1.1949519E-1,9.460572E-2,3.9759204E-1,-1.1772535E-1,-4.0880972E-1,8.289576E-2,-5.5897694E-2,7.448019E-1,3.9619243E-1,3.8891396E-1,-2.8521812E-1],"split_indices":[0,0,32,18,19,8,32,27,38,0,2,4,3,29,0,32,38,21,33,0,0,0,28,16,29,18,0,0,6,0,0,0,0,0,0,0,0,0,0,0,0,0,0],"split_type":[0,0,0,0,0,0,0,0,0,0,0,0,0,0,0,0,0,0,0,0,0,0,0,0,0,0,0,0,0,0,0,0,0,0,0,0,0,0,0,0,0,0,0],"sum_hessian":[3.099131E3,1.0307566E3,2.0683748E3,1.7551707E3,3.1320398E2,1.6376952E3,1.174755E2,3.2501053E1,2.8070294E2,4.603251E0,1.6330919E3,1.2137005E1,1.0533849E2,3.1230568E1,1.2704831E0,2.4562967E2,3.507327E1,1.1856818E2,1.5145238E3,1.0766134E1,1.3708706E0,1.0718751E0,1.0426662E2,2.9187557E1,2.043011E0,7.3238556E1,1.7239111E2,7.396335E0,2.7676933E1,3.722787E1,8.13403E1,1.4877798E3,2.6744007E1,2.8489153E0,1.014177E2,2.2215447E0,2.6966013E1,1.0336945E0,1.0093164E0,2.313202E1,5.0106533E1,2.547538E1,2.201555E0],"tree_param":{"num_deleted":"0","num_feature":"39","num_nodes":"43","size_leaf_vector":"0"}},{"base_weights":[6.5790666E-3,1.2291137E0,-5.749477E-1,-9.634633E-1,5.221138E-1,6.3234717E-1,-1.0560187E0,-6.5171325E-1,8.8659096E-1,-4.9154928E-1,1.063308E0,-1.089476E0,3.5063258E-1,-9.9797004E-1,8.815098E-1,1.0601554E0,-4.499612E-1,3.767468E-1,-1.2057157E0,-3.571315E-1,1.2365167E0,1.7652965E0,-1.1049169E0,-1.4282602E0,1.1919763E0,-1.143181E0,1.0237153E-2,1.218323E0,-4.0877968E-1,1.2951832E0,5.721334E-1,-9.546861E-1,1.1139864E0,-9.774797E-1,9.2925125E-1,-3.3263448E-1,-1.2726314E0,-1.0197973E0,9.32981E-1,-8.644282E-1,1.3090236E0,-1.1374403E0,-1.4791596E-1,2.5727123E-1,-1.6637511E0,1.307253E0,-3.8452902E-1,-1.2137356E0,4.5378715E-2,-7.094164E-1,1.1316408E0,1.3478239E0,1.8225512E-2,-1.0583386E0,7.311338E-1,1.1826334E0,2.112514E0,-1.7730865E-1,1.2131212E0,-1.1561456E0,1.0479351E0],"categories":[],"categories_nodes":[],"categories_segments":[],"categories_sizes":[],"default_left":[1,0,1,1,1,1,1,1,1,1,1,1,1,1,1,1,1,1,1,1,1,0,1,1,1,1,1,1,1,1,1,1,0,0,0,0,0,0,0,0,0,0,0,0,0,0,0,0,0,0,0,0,0,0,0,0,0,0,0,0,0],"id":3,"left_children":[1,-1,3,5,7,9,11,13,15,17,19,21,23,25,27,29,31,33,35,37,39,-1,41,43,45,47,49,51,53,55,57,59,-1,-1,-1,-1,-1,-1,-1,-1,-1,-1,-1,-1,-1,-1,-1,-1,-1,-1,-1,-1,-1,-1,-1,-1,-1,-1,-1,-1,-1],"loss_changes":[1.8171481E3,0E0,7.387654E2,1.8964514E2,1.946576E2,3.4797974E1,5.7313354E1,5.824646E1,8.087509E1,1.3041069E1,1.31041565E1,5.404651E1,4.489702E1,1.2985817E1,9.380322E0,3.4476166E1,3.306083E1,8.332372E0,2.4126625E-1,6.3969893E0,8.153702E0,0E0,3.6437378E1,4.2869263E0,4.162575E0,6.551712E0,1.0606482E1,2.5333767E0,4.460869E0,1.6492676E1,4.9019657E1,1.3792675E1,0E0,0E0,0E0,0E0,0E0,0E0,0E0,0E0,0E0,0E0,0E0,0E0,0E0,0E0,0E0,0E0,0E0,0E0,0E0,0E0,0E0,0E0,0E0,0E0,0E0,0E0,0E0,0E0,0E0],"parents":[2147483647,0,0,2,2,3,3,4,4,5,5,6,6,7,7,8,8,9,9,10,10,11,11,12,12,13,13,14,14,15,15,16,16,17,17,18,18,19,19,20,20,22,22,23,23,24,24,25,25,26,26,27,27,28,28,29,29,30,30,31,31],"right_children":[2,-1,4,6,8,10,12,14,16,18,20,22,24,26,28,30,32,34,36,38,40,-1,42,44,46,48,50,52,54,56,58,60,-1,-1,-1,-1,-1,-1,-1,-1,-1,-1,-1,-1,-1,-1,-1,-1,-1,-1,-1,-1,-1,-1,-1,-1,-1,-1,-1,-1,-1],"split_conditions":[8.25E1,3.6873412E-1,2.5E0,1.3135E-1,1.25E1,1.5E0,5E-1,5E-1,5.5E0,5.138E3,1.05E1,1.3E1,1.35E1,8.5E0,6.6400334E-2,1.65E2,5E-1,1.05E1,-4.836938E0,1.4E1,-5.7942066E0,5.2958894E-1,1.75E1,2.6334155E-1,5.322E3,5E-1,1.828675E-1,7.6505375E-1,9.749424E-2,2.413381E-1,5E-1,1.95E1,3.341959E-1,-2.932439E-1,2.787754E-1,-9.979035E-2,-3.8178945E-1,-3.059392E-1,2.7989432E-1,-2.5932848E-1,3.927071E-1,-3.4123212E-1,-4.437479E-2,7.718137E-2,-4.9912536E-1,3.921759E-1,-1.1535871E-1,-3.641207E-1,1.3613615E-2,-2.1282493E-1,3.3949226E-1,4.0434718E-1,5.4676537E-3,-3.175016E-1,2.1934016E-1,3.5479003E-1,6.3375425E-1,-5.3192597E-2,3.6393636E-1,-3.468437E-1,3.1438056E-1],"split_indices":[0,0,19,17,32,19,33,36,23,37,32,8,32,5,11,38,18,32,29,12,29,0,32,17,37,18,17,15,11,13,18,32,0,0,0,0,0,0,0,0,0,0,0,0,0,0,0,0,0,0,0,0,0,0,0,0,0,0,0,0,0],"split_type":[0,0,0,0,0,0,0,0,0,0,0,0,0,0,0,0,0,0,0,0,0,0,0,0,0,0,0,0,0,0,0,0,0,0,0,0,0,0,0,0,0,0,0,0,0,0,0,0,0,0,0,0,0,0,0,0,0,0,0,0,0],"sum_hessian":[2.5539978E3,8.229046E2,1.7310931E3,1.2784589E3,4.526343E2,6.976481E1,1.2086941E3,1.070579E2,3.455764E2,1.9297789E1,5.046702E1,1.1808334E3,2.7860632E1,8.76194E1,1.9438501E1,3.0604077E2,3.953561E1,8.92233E0,1.037546E1,5.369696E0,4.509732E1,5.742929E0,1.1750905E3,8.721905E0,1.9138727E1,7.647143E1,1.1147965E1,1.5458926E1,3.9795752E0,2.0544572E2,1.0059507E2,3.0184036E1,9.351576E0,2.3625E0,6.5598297E0,1.1636544E0,9.211804E0,3.685942E0,1.6837541E0,1.1400964E0,4.3957226E1,1.1362856E3,3.880483E1,1.057848E0,7.6640563E0,1.7993784E1,1.1449443E0,7.216635E1,4.3050814E0,7.0140986E0,4.133867E0,1.3842145E1,1.6167815E0,2.5806186E0,1.3989563E0,1.8273E2,2.2715717E1,4.6707775E1,5.388729E1,2.7809175E1,2.374861E0],"tree_param":{"num_deleted":"0","num_feature":"39","num_nodes":"61","size_leaf_vector":"0"}},{"base_weights":[8.111207E-3,1.1576843E0,-5.0768894E-1,-8.277619E-1,5.636638E-1,-9.1125435E-1,7.456295E-1,1.0012127E0,-8.0298686E-1,-9.290623E-1,1.1993451E0,-8.4377927E-1,1.0753073E0,-3.3198103E-1,1.0873E0,-1.0199416E0,9.702007E-1,1.413949E0,-9.443534E-1,2.3823965E-1,1.3197863E0,-1.1160235E0,6.6134E-3,-9.670271E-2,1.1044096E0,1.451211E0,-6.3834035E-1,1.1419542E0,-2.6750484E-1,-1.0881906E0,1.2385601E0,1.0447778E0,2.306269E-1,4.5486876E-1,1.5593613E0,-9.6996456E-1,2.0744844E-1,8.218117E-1,-7.036863E-1,8.933441E-2,1.1517026E0,-1.0715507E0,3.0103338E-1,1.2558293E0,5.3602976E-1,-1.0406567E0,8.590947E-1,-1.1234318E0,6.192791E-1],"categories":[],"categories_nodes":[],"categories_segments":[],"categories_sizes":[],"default_left":[1,0,1,1,1,1,1,1,1,1,1,1,1,1,1,1,1,1,1,0,0,0,1,0,1,0,1,1,1,1,0,0,0,0,0,0,0,0,0,0,0,0,0,0,0,0,0,0,0],"id":4,"left_children":[1,-1,3,5,7,9,11,13,15,17,19,21,23,25,27,29,31,33,35,-1,-1,-1,37,-1,39,-1,41,43,45,47,-1,-1,-1,-1,-1,-1,-1,-1,-1,-1,-1,-1,-1,-1,-1,-1,-1,-1,-1],"loss_changes":[1.2292545E3,0E0,4.911864E2,1.4547937E2,1.980051E2,4.047235E1,3.0300306E1,2.90822E1,3.1970436E1,3.8558716E1,7.502947E-1,2.368064E0,1.7063942E0,9.637098E0,1.7728699E1,1.2482994E1,2.7153206E-1,2.8604603E-1,3.066864E1,0E0,0E0,0E0,2.585726E0,0E0,2.0977936E0,0E0,6.142623E0,1.4946228E1,9.547295E0,4.9472046E0,0E0,0E0,0E0,0E0,0E0,0E0,0E0,0E0,0E0,0E0,0E0,0E0,0E0,0E0,0E0,0E0,0E0,0E0,0E0],"parents":[2147483647,0,0,2,2,3,3,4,4,5,5,6,6,7,7,8,8,9,9,10,10,11,11,12,12,13,13,14,14,15,15,16,16,17,17,18,18,22,22,24,24,26,26,27,27,28,28,29,29],"right_children":[2,-1,4,6,8,10,12,14,16,18,20,22,24,26,28,30,32,34,36,-1,-1,-1,38,-1,40,-1,42,44,46,48,-1,-1,-1,-1,-1,-1,-1,-1,-1,-1,-1,-1,-1,-1,-1,-1,-1,-1,-1],"split_conditions":[8.25E1,3.473053E-1,1.55E1,5E-1,5.5E0,5E-1,1.05E1,1.5E0,5E-1,1.45E1,5.351691E-1,5E-1,2.9437229E-2,2.5E0,2.0405E3,3.5E0,1.05E1,2.75E1,5E-1,7.14719E-2,3.9593592E-1,-3.3480707E-1,8.458042E-1,-2.9010814E-2,1E0,4.3536332E-1,1.95E1,5.5E0,2.205E3,2.4E1,3.7156802E-1,3.1343335E-1,6.918807E-2,1.3646063E-1,4.6780843E-1,-2.9098937E-1,6.2234532E-2,2.4654351E-1,-2.111059E-1,2.6800325E-2,3.455108E-1,-3.2146522E-1,9.0310015E-2,3.7674883E-1,1.6080894E-1,-3.1219703E-1,2.5772843E-1,-3.3702955E-1,1.8578373E-1],"split_indices":[0,0,32,18,23,26,32,19,18,8,9,36,3,30,38,24,23,12,33,0,0,0,15,0,28,0,32,30,38,32,0,0,0,0,0,0,0,0,0,0,0,0,0,0,0,0,0,0,0],"split_type":[0,0,0,0,0,0,0,0,0,0,0,0,0,0,0,0,0,0,0,0,0,0,0,0,0,0,0,0,0,0,0,0,0,0,0,0,0,0,0,0,0,0,0,0,0,0,0,0,0],"sum_hessian":[2.0711255E3,6.410845E2,1.430041E3,1.1012604E3,3.287807E2,1.0461661E3,5.509428E1,2.4924835E2,7.953233E1,1.0379681E3,8.197911E0,9.196694E0,4.5897583E1,1.494503E1,2.3430333E2,7.124063E1,8.2917E0,6.1370687E0,1.031831E3,1.2445577E0,6.953353E0,6.7298436E0,2.466851E0,1.0557935E0,4.484179E1,1.6432705E0,1.330176E1,2.2536882E2,8.934501E0,6.965396E1,1.5866728E0,7.157299E0,1.1344018E0,1.3514684E0,4.7856E0,1.0095411E3,2.229001E1,1.075512E0,1.3913388E0,2.1248121E0,4.271698E1,9.007205E0,4.2945547E0,1.8881168E2,3.6557148E1,5.343619E0,3.5908816E0,6.858054E1,1.0734173E0],"tree_param":{"num_deleted":"0","num_feature":"39","num_nodes":"49","size_leaf_vector":"0"}},{"base_weights":[1.2376904E-2,1.1104367E0,-4.4792765E-1,-7.775106E-1,4.4528463E-1,4.404328E-1,-8.7747777E-1,-4.6671373E-1,7.279973E-1,-5.52064E-1,9.561734E-1,-9.462278E-1,-1.24283776E-1,6.70675E-1,-8.4000534E-1,9.646333E-1,-2.7910694E-2,2.3919782E-1,-8.693331E-1,1.4150221E0,3.2793146E-1,-1.0185926E0,-3.7819287E-1,1.7022699E0,-9.304226E-1,6.470409E-2,1.2403382E0,-9.926249E-1,7.741856E-1,1.1284331E0,-8.2054734E-2,-8.301191E-1,8.3976936E-1,-7.977506E-1,7.342213E-1,-1.0265828E0,7.038953E-1,1.5338353E0,9.757044E-2,-3.920534E-1,9.201377E-1,-1.048899E0,1.016895E0,-8.433994E-1,4.453191E0,-7.3377055E-1,2.1668475E0,-1.0325137E0,1.8285389E0,9.1193104E-1,-5.299491E-1,1.2583393E-1,1.3619721E0,8.6680216E-1,-1.054861E0,1.341729E0,-3.9250213E-1,1.2035468E0,-8.102425E-1,-9.5525414E-1,6.2769634E-1,1.0801556E0,-1.0892171E0,1.1331177E0,-4.995724E-1],"categories":[],"categories_nodes":[],"categories_segments":[],"categories_sizes":[],"default_left":[1,0,1,1,1,1,1,1,1,1,1,1,1,1,1,1,1,1,1,1,1,1,1,1,1,1,1,1,1,1,1,1,1,0,0,0,0,0,0,0,0,0,0,0,0,0,0,0,0,0,0,0,0,0,0,0,0,0,0,0,0,0,0,0,0],"id":5,"left_children":[1,-1,3,5,7,9,11,13,15,17,19,21,23,25,27,29,31,33,35,37,39,41,43,45,47,49,51,53,55,57,59,61,63,-1,-1,-1,-1,-1,-1,-1,-1,-1,-1,-1,-1,-1,-1,-1,-1,-1,-1,-1,-1,-1,-1,-1,-1,-1,-1,-1,-1,-1,-1,-1,-1],"loss_changes":[8.434221E2,0E0,3.4649054E2,1.050047E2,8.221614E1,3.423088E1,4.10188E1,3.272709E1,4.3457886E1,6.0193E0,1.2131531E1,2.9532166E1,1.0111967E2,6.573509E0,1.4928955E1,3.180037E1,4.1666412E1,4.389167E0,4.8637342E0,3.7557144E0,8.779339E0,4.0854553E1,1.9217883E2,2.5415485E1,1.5280121E1,5.7203236E0,1.1679888E0,7.042206E0,4.1862955E0,2.4272156E1,1.66872E1,1.6562567E1,1.1870682E1,0E0,0E0,0E0,0E0,0E0,0E0,0E0,0E0,0E0,0E0,0E0,0E0,0E0,0E0,0E0,0E0,0E0,0E0,0E0,0E0,0E0,0E0,0E0,0E0,0E0,0E0,0E0,0E0,0E0,0E0,0E0,0E0],"parents":[2147483647,0,0,2,2,3,3,4,4,5,5,6,6,7,7,8,8,9,9,10,10,11,11,12,12,13,13,14,14,15,15,16,16,17,17,18,18,19,19,20,20,21,21,22,22,23,23,24,24,25,25,26,26,27,27,28,28,29,29,30,30,31,31,32,32],"right_children":[2,-1,4,6,8,10,12,14,16,18,20,22,24,26,28,30,32,34,36,38,40,42,44,46,48,50,52,54,56,58,60,62,64,-1,-1,-1,-1,-1,-1,-1,-1,-1,-1,-1,-1,-1,-1,-1,-1,-1,-1,-1,-1,-1,-1,-1,-1,-1,-1,-1,-1,-1,-1,-1,-1],"split_conditions":[8.25E1,3.3313102E-1,2.5E0,1.3652715E-1,1.25E1,1.5E0,3.5E0,1.1112483E-2,5.5E0,1.1347145E-1,7.3849726E-1,2.15E1,1.5E0,5E-1,3.725E2,1.5E0,1.65E1,5.0622296E-1,6.5E0,1.5E1,1.35E1,1.85E1,8.105556E-1,6.05E1,1.45E1,1.5E0,1.85E1,2.5E0,8.5E2,9.567E3,3.5E0,2.2E1,6.5E0,-2.3932518E-1,2.2026639E-1,-3.0797487E-1,2.1116859E-1,4.601506E-1,2.9271133E-2,-1.1761602E-1,2.7604133E-1,-3.1466973E-1,3.0506852E-1,-2.5301984E-1,1.3359573E0,-2.2013117E-1,6.500543E-1,-3.0975413E-1,5.485617E-1,2.7357933E-1,-1.5898475E-1,3.775018E-2,4.0859166E-1,2.6004067E-1,-3.1645828E-1,4.0251872E-1,-1.17750645E-1,3.6106405E-1,-2.4307275E-1,-2.8657624E-1,1.8830891E-1,3.240467E-1,-3.2676512E-1,3.399353E-1,-1.4987172E-1],"split_indices":[0,0,19,17,32,19,24,11,30,17,15,5,4,36,38,21,32,9,27,5,32,32,9,8,32,4,16,5,38,37,19,2,23,0,0,0,0,0,0,0,0,0,0,0,0,0,0,0,0,0,0,0,0,0,0,0,0,0,0,0,0,0,0,0,0],"split_type":[0,0,0,0,0,0,0,0,0,0,0,0,0,0,0,0,0,0,0,0,0,0,0,0,0,0,0,0,0,0,0,0,0,0,0,0,0,0,0,0,0,0,0,0,0,0,0,0,0,0,0,0,0,0,0,0,0,0,0,0,0,0,0,0,0],"sum_hessian":[1.6666986E3,4.9188678E2,1.1748118E3,8.5825653E2,3.165552E2,6.484279E1,7.9341376E2,7.4754616E1,2.418006E2,2.2148859E1,4.2693928E1,7.2681525E2,6.659852E1,1.8275133E1,5.647948E1,1.8394176E2,5.7858852E1,6.409582E0,1.5739277E1,2.3949556E1,1.8744371E1,6.4398193E2,8.2833305E1,2.0052294E1,4.6546227E1,9.394963E0,8.880171E0,5.1952507E1,4.526975E0,1.5898373E2,2.4958015E1,3.0086163E1,2.7772692E1,1.8735113E0,4.536071E0,1.462493E1,1.1143465E0,2.1817703E1,2.1318538E0,8.612074E0,1.01322975E1,6.350119E2,8.970028E0,7.631088E1,6.522425E0,3.1188712E0,1.6933422E1,4.5488747E1,1.0574806E0,3.6545804E0,5.7403827E0,1.0739882E0,7.806183E0,1.2638822E0,5.0688625E1,2.944547E0,1.5824281E0,1.5341875E2,5.564988E0,1.103539E1,1.39226265E1,3.2148492E0,2.6871313E1,2.290903E1,4.8636603E0],"tree_param":{"num_deleted":"0","num_feature":"39","num_nodes":"65","size_leaf_vector":"0"}},{"base_weights":[1.0162303E-2,1.0778805E0,-4.0368593E-1,-7.0255965E-1,3.909788E-1,3.5899568E-1,-7.9897505E-1,-3.9963275E-1,6.3653624E-1,-5.0149184E-1,8.167839E-1,-8.419352E-1,3.785578E-1,5.626833E-1,-7.5028807E-1,8.4516466E-1,-2.0744726E-2,-1.9303454E-2,-9.7043455E-1,7.881713E-3,1.2007453E0,-1.0114557E0,-5.0901306E-1,-1.0469668E0,1.0938517E0,5.458767E-2,1.0917603E0,-8.9588875E-1,7.5552255E-1,1.0612376E0,-6.484198E-2,-4.9733067E-1,1.1500481E0,-5.2138686E-1,9.2276067E-1,-1.734659E-1,-1.0361168E0,8.7359834E-1,-6.9381595E-1,1.3640293E0,-4.2756233E-1,-1.0350745E0,6.511607E-1,1.6280291E0,-6.945788E-1,-1.3092424E0,1.3545084E-1,1.2273148E0,-4.4824514E-1,4.1274816E-1,-8.097735E-1,1.0671124E-1,1.2184771E0,7.224454E-1,-9.6496373E-1,-1.7817375E-1,1.6847923E0,1.1470661E0,-7.3469937E-1,-8.807418E-1,1.0747081E0,1.0946581E0,-8.626411E-1],"categories":[],"categories_nodes":[],"categories_segments":[],"categories_sizes":[],"default_left":[1,0,1,1,1,1,1,1,1,1,1,1,1,1,1,1,1,1,1,1,1,1,1,1,1,1,1,1,1,1,1,1,0,0,0,0,0,0,0,0,0,0,0,0,0,0,0,0,0,0,0,0,0,0,0,0,0,0,0,0,0,0,0],"id":6,"left_children":[1,-1,3,5,7,9,11,13,15,17,19,21,23,25,27,29,31,33,35,37,39,41,43,45,47,49,51,53,55,57,59,61,-1,-1,-1,-1,-1,-1,-1,-1,-1,-1,-1,-1,-1,-1,-1,-1,-1,-1,-1,-1,-1,-1,-1,-1,-1,-1,-1,-1,-1,-1,-1],"loss_changes":[5.9267676E2,0E0,2.2985538E2,7.2219086E1,5.1669216E1,2.3732565E1,3.292697E1,2.1807854E1,2.7779953E1,4.770471E0,1.211187E1,3.460135E1,2.4984108E1,4.644051E0,1.0954887E1,3.0290878E1,2.8334505E1,5.902976E0,3.8127995E-1,8.84874E0,7.617874E0,1.682434E1,8.5180084E1,2.7582722E0,3.854805E0,3.4232996E0,9.333401E-1,5.5266533E0,4.3570633E0,1.9997604E1,2.92436E1,2.1915203E1,0E0,0E0,0E0,0E0,0E0,0E0,0E0,0E0,0E0,0E0,0E0,0E0,0E0,0E0,0E0,0E0,0E0,0E0,0E0,0E0,0E0,0E0,0E0,0E0,0E0,0E0,0E0,0E0,0E0,0E0,0E0],"parents":[2147483647,0,0,2,2,3,3,4,4,5,5,6,6,7,7,8,8,9,9,10,10,11,11,12,12,13,13,14,14,15,15,16,16,17,17,18,18,19,19,20,20,21,21,22,22,23,23,24,24,25,25,26,26,27,27,28,28,29,29,30,30,31,31],"right_children":[2,-1,4,6,8,10,12,14,16,18,20,22,24,26,28,30,32,34,36,38,40,42,44,46,48,50,52,54,56,58,60,62,-1,-1,-1,-1,-1,-1,-1,-1,-1,-1,-1,-1,-1,-1,-1,-1,-1,-1,-1,-1,-1,-1,-1,-1,-1,-1,-1,-1,-1,-1,-1],"split_conditions":[8.25E1,3.2336417E-1,2.5E0,1.374348E-1,1.25E1,1.5E0,5E-1,1.1112483E-2,5.5E0,5.023E3,1.35E1,8.5E0,1.35E1,5E-1,4.45E2,5.615E2,1.95E1,1.5933755E-1,-4.846341E0,7.514045E-1,2.5E0,5E-1,1.05E1,1.5E0,5.322E3,2.23E2,1.85E1,2.5E0,5E-1,9.453E3,6.67E3,2.3E1,3.4501445E-1,-1.5641606E-1,2.768282E-1,-5.203977E-2,-3.1083506E-1,2.620795E-1,-2.081448E-1,4.092088E-1,-1.282687E-1,-3.1052235E-1,1.9534822E-1,4.8840874E-1,-2.0837365E-1,-3.9277273E-1,4.0635254E-2,3.6819446E-1,-1.3447355E-1,1.23824455E-1,-2.4293207E-1,3.201337E-2,3.6554316E-1,2.1673363E-1,-2.8948912E-1,-5.3452127E-2,5.0543773E-1,3.4411985E-1,-2.2040983E-1,-2.6422253E-1,3.2241243E-1,3.2839745E-1,-2.5879234E-1],"split_indices":[0,0,19,17,32,19,33,11,30,37,12,5,32,36,38,38,32,13,29,3,23,18,2,23,37,38,16,5,7,37,37,2,0,0,0,0,0,0,0,0,0,0,0,0,0,0,0,0,0,0,0,0,0,0,0,0,0,0,0,0,0,0,0],"split_type":[0,0,0,0,0,0,0,0,0,0,0,0,0,0,0,0,0,0,0,0,0,0,0,0,0,0,0,0,0,0,0,0,0,0,0,0,0,0,0,0,0,0,0,0,0,0,0,0,0,0,0,0,0,0,0,0,0,0,0,0,0,0,0],"sum_hessian":[1.3392976E3,3.7365988E2,9.656377E2,7.018046E2,2.6383307E2,5.8207176E1,6.435975E2,6.237602E1,2.0145705E2,2.018004E1,3.8027138E1,6.212184E2,2.2379036E1,1.6497278E1,4.587874E1,1.5270189E2,4.8755154E1,1.0462835E1,9.717204E0,1.2568745E1,2.5458393E1,4.1027344E2,2.1094496E2,7.3223934E0,1.50566435E1,8.9782505E0,7.519028E0,4.220306E1,3.675676E0,1.2326705E2,2.9434843E1,3.5059116E1,1.3696036E1,7.116544E0,3.3462918E0,1.0170933E0,8.70011E0,5.517085E0,7.0516596E0,2.328565E1,2.1727428E0,4.0489896E2,5.3744836E0,1.6232485E1,1.9471248E2,5.905269E0,1.4171242E0,1.4045205E1,1.0114378E0,6.7173157E0,2.2609346E0,1.0669658E0,6.4520626E0,1.3404025E0,4.086266E1,2.2366433E0,1.4390328E0,1.1798958E2,5.277471E0,1.7285683E1,1.214916E1,6.170806E0,2.8888311E1],"tree_param":{"num_deleted":"0","num_feature":"39","num_nodes":"63","size_leaf_vector":"0"}},{"base_weights":[1.1865055E-2,1.0547097E0,-3.6047602E-1,-6.3296247E-1,3.4735623E-1,3.0256927E-1,-7.2349524E-1,7.274491E-2,9.5674634E-1,6.020018E-1,-6.9292086E-1,-9.042386E-1,-4.0312287E-1,7.9645E-1,-2.3636748E-1,-3.870688E-1,1.0325003E0,8.649428E-1,-5.697673E-1,-2.2936083E-2,-8.916954E-1,-9.5892566E-1,3.1349865E-1,1.1103258E0,-5.690252E-1,1.4200962E0,2.2159041E-1,-8.8907707E-1,4.2782155E-1,-7.968991E-1,4.0096697E-1,-1.8304302E-1,1.0569669E0,-1.2832451E-1,1.2014194E0,5.6153214E-1,-8.2306623E-1,6.999093E-1,-6.2540203E-1,-1.0499586E0,-2.0273341E-1,-9.836335E-1,9.002559E-1,1.1428139E0,-1.0889226E0,-1.1460835E0,1.6488082E0,1.4387136E0,-6.47934E-1,1.6044182E0,-6.0729367E-1,-5.081147E-1,1.2023442E0,3.1040865E-1,-9.943215E-1,7.924769E-1,-8.6504185E-1],"categories":[],"categories_nodes":[],"categories_segments":[],"categories_sizes":[],"default_left":[1,0,1,1,1,1,1,1,1,1,1,1,1,1,1,1,1,1,1,1,1,1,1,1,1,1,1,1,1,0,0,0,0,0,0,0,0,0,0,0,0,0,0,0,0,0,0,0,0,0,0,0,0,0,0,0,0],"id":7,"left_children":[1,-1,3,5,7,9,11,13,15,17,19,21,23,25,27,29,31,33,35,37,39,41,43,45,47,49,51,53,55,-1,-1,-1,-1,-1,-1,-1,-1,-1,-1,-1,-1,-1,-1,-1,-1,-1,-1,-1,-1,-1,-1,-1,-1,-1,-1,-1,-1],"loss_changes":[4.1757834E2,0E0,1.5307211E2,4.871344E1,3.6901226E1,1.5686301E1,2.9881958E1,3.449987E1,7.3777046E0,1.2790816E1,1.6189275E0,2.2485931E1,4.8389336E1,1.622457E1,4.730684E1,1.7358077E0,2.1314087E0,1.1182039E1,2.7311654E0,2.1112835E0,8.193879E-1,1.5542389E1,1.8773382E1,2.513222E1,2.819387E1,9.174244E0,1.8638832E1,7.2415695E0,2.6297325E1,0E0,0E0,0E0,0E0,0E0,0E0,0E0,0E0,0E0,0E0,0E0,0E0,0E0,0E0,0E0,0E0,0E0,0E0,0E0,0E0,0E0,0E0,0E0,0E0,0E0,0E0,0E0,0E0],"parents":[2147483647,0,0,2,2,3,3,4,4,5,5,6,6,7,7,8,8,9,9,10,10,11,11,12,12,13,13,14,14,15,15,16,16,17,17,18,18,19,19,20,20,21,21,22,22,23,23,24,24,25,25,26,26,27,27,28,28],"right_children":[2,-1,4,6,8,10,12,14,16,18,20,22,24,26,28,30,32,34,36,38,40,42,44,46,48,50,52,54,56,-1,-1,-1,-1,-1,-1,-1,-1,-1,-1,-1,-1,-1,-1,-1,-1,-1,-1,-1,-1,-1,-1,-1,-1,-1,-1,-1,-1],"split_conditions":[8.25E1,3.1641293E-1,2.5E0,1.374348E-1,5E-1,2.5E0,8.5E0,6.5E0,1.05E1,3.665E2,9.35E1,5E-1,1.15E1,1.6121714E-1,8.5E0,5E-1,1.5E0,1.15E1,9.793022E-2,2.5E0,1.55E1,1.85E1,2.836E3,6.05E1,4.25E1,2.25E1,5E-1,1.55E1,5.155E2,-2.3906973E-1,1.2029009E-1,-5.4912906E-2,3.170901E-1,-3.8497355E-2,3.6042583E-1,1.6845965E-1,-2.4691989E-1,2.0997281E-1,-1.8762062E-1,-3.149876E-1,-6.0820024E-2,-2.9509008E-1,2.7007678E-1,3.428442E-1,-3.266768E-1,-3.4382504E-1,4.946425E-1,4.3161407E-1,-1.9438021E-1,4.8132548E-1,-1.8218811E-1,-1.5243441E-1,3.6070326E-1,9.31226E-2,-2.9829648E-1,2.3774308E-1,-2.5951257E-1],"split_indices":[0,0,19,17,18,23,5,5,32,38,0,33,2,17,5,36,5,32,17,30,32,32,37,8,14,16,36,16,38,0,0,0,0,0,0,0,0,0,0,0,0,0,0,0,0,0,0,0,0,0,0,0,0,0,0,0,0],"split_type":[0,0,0,0,0,0,0,0,0,0,0,0,0,0,0,0,0,0,0,0,0,0,0,0,0,0,0,0,0,0,0,0,0,0,0,0,0,0,0,0,0,0,0,0,0,0,0,0,0,0,0,0,0,0,0,0,0],"sum_hessian":[1.0734391E3,2.8194397E2,7.9149506E2,5.715698E2,2.1992523E2,5.022469E1,5.2134515E2,1.5237802E2,6.75472E1,3.8914814E1,1.1309877E1,3.321403E2,1.8920488E2,4.5133434E1,1.072446E2,3.3852904E0,6.416191E1,3.1996708E1,6.9181046E0,2.8429348E0,8.466943E0,3.1806873E2,1.407154E1,1.8129091E1,1.7107579E2,2.0942871E1,2.4190563E1,5.3918953E1,5.332564E1,2.2196693E0,1.165621E0,1.1380951E0,6.3023815E1,8.252938E0,2.374377E1,1.0429847E0,5.8751197E0,1.2188292E0,1.6241058E0,6.4592094E0,2.007733E0,3.143619E2,3.7068188E0,8.958868E0,5.112672E0,3.2754736E0,1.4853617E1,5.817747E0,1.6525804E2,1.9388754E1,1.5541179E0,1.4146861E1,1.0043701E1,4.192058E0,4.9726894E1,4.189585E1,1.1429792E1],"tree_param":{"num_deleted":"0","num_feature":"39","num_nodes":"57","size_leaf_vector":"0"}},{"base_weights":[1.2923071E-2,1.0376961E0,-3.2027283E-1,-4.5945933E-1,8.8080686E-1,-1.1025005E-1,-7.9256797E-1,-5.639609E-1,9.993981E-1,-3.228778E-1,6.313711E-1,-9.039641E-1,-1.386168E-1,-8.384136E-1,9.298474E-2,-1.5844268E-1,1.023098E0,-4.2256838E-1,6.0814404E-1,8.8012165E-1,-3.8953575E-1,-9.476832E-1,5.2203035E-1,-8.757217E-1,2.1729605E0,1.553555E-1,1.0531375E0,-5.1447254E-1,8.036083E-1,1.3694333E0,-2.3041189E-1,1.1372476E0,-2.0871729E-1,-8.334862E-1,8.612174E-1,-9.7841054E-1,6.786472E-1,1.5978101E0,-6.374064E-1,5.855935E-1,-9.689683E-1,-1.1012734E0,3.0953557E0,5.844758E-1,-3.756328E-1,1.0639433E0,3.180922E-1],"categories":[],"categories_nodes":[],"categories_segments":[],"categories_sizes":[],"default_left":[1,0,1,1,1,1,1,1,1,1,1,1,1,0,0,0,1,1,1,1,1,1,1,1,1,1,1,0,0,0,0,0,0,0,0,0,0,0,0,0,0,0,0,0,0,0,0],"id":8,"left_children":[1,-1,3,5,7,9,11,13,15,17,19,21,23,-1,-1,-1,25,27,29,31,33,35,37,39,41,43,45,-1,-1,-1,-1,-1,-1,-1,-1,-1,-1,-1,-1,-1,-1,-1,-1,-1,-1,-1,-1],"loss_changes":[2.960906E2,0E0,1.0980631E2,6.820837E1,1.2266605E1,4.558543E1,2.1752441E1,1.1274124E0,1.9041328E0,2.1077658E1,1.6713701E1,1.6481354E1,7.8394875E1,0E0,0E0,0E0,1.4614868E0,2.3314415E1,1.4428196E1,1.48353615E1,8.115742E0,1.3115036E1,1.133702E1,5.302763E0,3.7057343E1,9.621513E-1,1.388092E-1,0E0,0E0,0E0,0E0,0E0,0E0,0E0,0E0,0E0,0E0,0E0,0E0,0E0,0E0,0E0,0E0,0E0,0E0,0E0,0E0],"parents":[2147483647,0,0,2,2,3,3,4,4,5,5,6,6,7,7,8,8,9,9,10,10,11,11,12,12,16,16,17,17,18,18,19,19,20,20,21,21,22,22,23,23,24,24,25,25,26,26],"right_children":[2,-1,4,6,8,10,12,14,16,18,20,22,24,-1,-1,-1,26,28,30,32,34,36,38,40,42,44,46,-1,-1,-1,-1,-1,-1,-1,-1,-1,-1,-1,-1,-1,-1,-1,-1,-1,-1,-1,-1],"split_conditions":[8.25E1,3.1130886E-1,5E-1,3.5E0,1.05E1,1.55E1,8.1422246E-1,1.8197946E-1,2.1527778E-2,5E-1,2.25E1,3.5E0,2.1E1,-2.515241E-1,2.7895425E-2,-4.7532804E-2,1E0,3.279785E-1,1.087085E-2,4.69E3,1.75E1,5E-1,1.5E0,-4.4131804E0,1.91E2,1.843357E-2,9.5E0,-1.5434177E-1,2.410825E-1,4.1083E-1,-6.9123566E-2,3.4117427E-1,-6.2615186E-2,-2.5004587E-1,2.583652E-1,-2.9352316E-1,2.0359418E-1,4.7934306E-1,-1.9122194E-1,1.7567806E-1,-2.9069048E-1,-3.3038205E-1,9.2860675E-1,1.7534275E-1,-1.12689845E-1,3.19183E-1,9.542766E-2],"split_indices":[0,0,18,23,32,32,9,17,3,36,16,24,5,0,0,0,28,17,11,37,32,33,10,29,37,11,23,0,0,0,0,0,0,0,0,0,0,0,0,0,0,0,0,0,0,0,0],"split_type":[0,0,0,0,0,0,0,0,0,0,0,0,0,0,0,0,0,0,0,0,0,0,0,0,0,0,0,0,0,0,0,0,0,0,0,0,0,0,0,0,0,0,0,0,0,0,0],"sum_hessian":[8.651828E2,2.1176541E2,6.5341736E2,5.861134E2,6.7303986E1,2.8679123E2,2.9932217E2,4.820577E0,6.2483406E1,2.2332661E2,6.34646E1,2.5542921E2,4.3892944E1,3.2052765E0,1.6153004E0,1.1392803E0,6.1344124E1,2.0221974E2,2.1106867E1,5.1141537E1,1.2323063E1,2.481565E2,7.2727304E0,3.3751564E1,1.0141381E1,2.2590628E0,5.9085064E1,1.8865979E2,1.3559964E1,1.0731296E1,1.0375572E1,4.1335766E1,9.805772E0,9.341089E0,2.9819741E0,2.4394586E2,4.2106304E0,3.5763414E0,3.6963887E0,1.7077936E0,3.204377E1,2.1863935E0,7.954988E0,1.1936653E0,1.0653974E0,5.7788082E1,1.2969809E0],"tree_param":{"num_deleted":"0","num_feature":"39","num_nodes":"47","size_leaf_vector":"0"}},{"base_weights":[1.4042587E-2,1.0247387E0,-2.7970403E-1,-7.28178E-1,3.283682E-2,-9.338138E-1,1.8083064E-1,-2.2667909E-1,6.462283E-1,-1.0013453E0,2.3141448E-1,-7.013374E-1,1.1849406E0,-5.634644E-3,-8.2487094E-1,7.379932E-1,-1.0129274E0,-1.0232882E0,8.408247E-1,1.0089793E0,-9.5895994E-1,-8.681444E-1,1.338207E0,1.8026592E0,-5.8196276E-1,-2.5842503E-1,7.1901643E-1,5.2284193E-1,-8.627001E-1,9.0136707E-1,6.914552E-2,-1.2688265E0,-6.962085E-2,-9.304367E-2,-1.0314747E0,2.8935608E-1,-1.0116023E0,2.090086E0,9.5177215E-1,6.9475114E-1,-1.0456564E0,2.176117E-1,-7.226166E-1,-1.659209E-1,1.4567704E0,-9.0465766E-1,4.113859E-1,1.0661608E0,3.3454537E-1,-3.75196E-1,8.339275E-1],"categories":[],"categories_nodes":[],"categories_segments":[],"categories_sizes":[],"default_left":[1,0,1,1,1,1,1,1,1,1,1,1,1,1,1,1,1,1,0,0,0,1,0,1,1,1,1,0,1,1,1,0,0,0,0,0,0,0,0,0,0,0,0,0,0,0,0,0,0,0,0],"id":9,"left_children":[1,-1,3,5,7,9,11,13,15,17,19,21,23,25,27,29,31,33,-1,-1,-1,35,-1,37,39,41,43,-1,45,47,49,-1,-1,-1,-1,-1,-1,-1,-1,-1,-1,-1,-1,-1,-1,-1,-1,-1,-1,-1,-1],"loss_changes":[2.10371E2,0E0,7.698332E1,4.232698E1,5.180548E1,1.4717651E1,3.842923E1,3.0246475E1,1.5476456E1,7.9017487E0,1.1053608E1,9.062484E0,2.3121124E1,3.097172E1,3.5978508E0,1.0017899E1,1.2372875E0,1.218399E0,0E0,0E0,0E0,3.95813E0,0E0,1.7350426E0,4.275235E0,2.7851837E1,2.8790655E1,0E0,3.6017761E0,6.5608177E0,6.8349605E0,0E0,0E0,0E0,0E0,0E0,0E0,0E0,0E0,0E0,0E0,0E0,0E0,0E0,0E0,0E0,0E0,0E0,0E0,0E0,0E0],"parents":[2147483647,0,0,2,2,3,3,4,4,5,5,6,6,7,7,8,8,9,9,10,10,11,11,12,12,13,13,14,14,15,15,16,16,17,17,21,21,23,23,24,24,25,25,26,26,28,28,29,29,30,30],"right_children":[2,-1,4,6,8,10,12,14,16,18,20,22,24,26,28,30,32,34,-1,-1,-1,36,-1,38,40,42,44,-1,46,48,50,-1,-1,-1,-1,-1,-1,-1,-1,-1,-1,-1,-1,-1,-1,-1,-1,-1,-1,-1,-1],"split_conditions":[8.25E1,3.0742162E-1,1.5E0,1.95E1,1.55E1,5E-1,-4.358532E0,5.5E0,-4.19204E0,1.95E1,1.944E3,8.497312E-1,1.25E1,3.5E0,8.5E0,3.445E2,1.75E1,1.0684845E-1,2.5224742E-1,3.026938E-1,-2.87688E-1,1.5E0,4.014621E-1,4.875E2,1.5E0,1.2616602E-1,9.189538E-2,1.5685259E-1,3.25E1,5.5E0,5.8925E3,-3.8064796E-1,-2.0886255E-2,-2.7913103E-2,-3.0944243E-1,8.680683E-2,-3.0348068E-1,6.2702584E-1,2.8553167E-1,2.0842536E-1,-3.1369695E-1,6.5283515E-2,-2.16785E-1,-4.977627E-2,4.3703115E-1,-2.7139732E-1,1.23415776E-1,3.1984824E-1,1.0036362E-1,-1.12558804E-1,2.5017828E-1],"split_indices":[0,0,19,5,32,33,29,23,29,32,37,3,32,4,32,38,32,17,0,0,0,23,0,37,23,13,13,0,12,30,37,0,0,0,0,0,0,0,0,0,0,0,0,0,0,0,0,0,0,0,0],"split_type":[0,0,0,0,0,0,0,0,0,0,0,0,0,0,0,0,0,0,0,0,0,0,0,0,0,0,0,0,0,0,0,0,0,0,0,0,0,0,0,0,0,0,0,0,0,0,0,0,0,0,0],"sum_hessian":[7.066203E2,1.5856299E2,5.480573E2,2.2453525E2,3.2352206E2,1.830895E2,4.1445763E1,2.2778177E2,9.5740295E1,1.7319266E2,9.896834E0,2.2223063E1,1.9222698E1,1.6705928E2,6.0722492E1,9.1248695E1,4.491599E0,1.7159325E2,1.5994098E0,6.0786095E0,3.8182254E0,2.107385E1,1.1492109E0,1.4228208E1,4.9944916E0,1.2433063E2,4.272865E1,1.3078429E0,5.941465E1,7.305621E1,1.8192482E1,3.2616882E0,1.2299109E0,1.6047622E0,1.6998848E2,2.2116857E0,1.8862165E1,9.546926E0,4.681282E0,1.1979129E0,3.7965784E0,6.16444E1,6.2686226E1,1.9778908E1,2.294974E1,5.780113E1,1.6135205E0,5.591805E1,1.7138165E1,1.1829122E1,6.363361E0],"tree_param":{"num_deleted":"0","num_feature":"39","num_nodes":"51","size_leaf_vector":"0"}},{"base_weights":[1.13454135E-2,1.0143825E0,-2.4586438E-1,-3.6032227E-1,8.1250995E-1,-8.333977E-2,-6.95888E-1,-4.8302844E-1,9.462561E-1,-3.4739226E-1,2.3218432E-1,-9.1258377E-1,-4.1283613E-1,-7.67034E-1,1.2687385E-1,-2.1569394E-1,9.822343E-1,-6.88904E-1,1.6098288E-1,4.6086857E-1,-6.6765326E-1,-9.474807E-1,7.16555E-1,9.8234266E-2,-7.394099E-1,1.9983533E-1,1.017033E0,-8.6879873E-1,6.5727407E-1,6.041366E-1,-5.7233226E-1,-2.8278893E-1,7.390246E-1,-1.002035E0,2.2999603E-1,5.702888E-1,-9.7841495E-1,4.9871555E-1,-9.5488966E-1,-8.2373494E-1,1.1606128E0,1.0314085E0,2.722605E-1],"categories":[],"categories_nodes":[],"categories_segments":[],"categories_sizes":[],"default_left":[1,0,1,1,1,1,1,1,1,1,1,1,1,0,0,0,1,1,1,1,1,1,0,1,1,0,1,0,0,0,0,0,0,0,0,0,0,0,0,0,0,0,0],"id":10,"left_children":[1,-1,3,5,7,9,11,13,15,17,19,21,23,-1,-1,-1,25,27,29,31,33,35,-1,37,39,-1,41,-1,-1,-1,-1,-1,-1,-1,-1,-1,-1,-1,-1,-1,-1,-1,-1],"loss_changes":[1.5104416E2,0E0,5.67447E1,3.909293E1,8.390467E0,1.9400572E1,1.1297539E1,9.541193E-1,1.9609375E0,2.2098103E1,2.2171173E1,6.76075E0,1.4151905E1,0E0,0E0,0E0,9.065819E-1,1.8962189E1,1.7146675E1,1.785541E1,6.8154516E0,5.4955215E0,0E0,1.4719316E1,9.221041E0,0E0,1.3440704E-1,0E0,0E0,0E0,0E0,0E0,0E0,0E0,0E0,0E0,0E0,0E0,0E0,0E0,0E0,0E0,0E0],"parents":[2147483647,0,0,2,2,3,3,4,4,5,5,6,6,7,7,8,8,9,9,10,10,11,11,12,12,16,16,17,17,18,18,19,19,20,20,21,21,23,23,24,24,26,26],"right_children":[2,-1,4,6,8,10,12,14,16,18,20,22,24,-1,-1,-1,26,28,30,32,34,36,-1,38,40,-1,42,-1,-1,-1,-1,-1,-1,-1,-1,-1,-1,-1,-1,-1,-1,-1,-1],"split_conditions":[8.25E1,3.0431476E-1,5E-1,3.5E0,1.05E1,1.35E1,8.5E0,3.5E0,1.5E0,7.5E0,5.575E2,2.05E1,4.475733E-2,-2.3011021E-1,3.8062155E-2,-6.470818E-2,1E0,5E-1,4.5615E3,1.5E0,5.6185E3,1.29222E-1,2.149665E-1,3.3E2,3.5E0,5.99506E-2,9.5E0,-2.6063964E-1,1.9718222E-1,1.8124098E-1,-1.7169969E-1,-8.4836684E-2,2.2170739E-1,-3.006105E-1,6.899881E-2,1.7108664E-1,-2.935245E-1,1.4961468E-1,-2.864669E-1,-2.4712048E-1,3.4818387E-1,3.0942258E-1,8.167815E-2],"split_indices":[0,0,18,23,32,32,5,19,5,5,38,32,13,0,0,0,28,36,37,19,37,17,0,38,24,0,23,0,0,0,0,0,0,0,0,0,0,0,0,0,0,0,0],"split_type":[0,0,0,0,0,0,0,0,0,0,0,0,0,0,0,0,0,0,0,0,0,0,0,0,0,0,0,0,0,0,0,0,0,0,0,0,0,0,0,0,0,0,0],"sum_hessian":[5.834963E2,1.18487724E2,4.6500858E2,4.2022308E2,4.478547E1,2.308902E2,1.893329E2,3.9464517E0,4.0839016E1,1.2564267E2,1.0524752E2,1.0597649E2,8.3356415E1,2.5168345E0,1.429617E0,1.0765249E0,3.9762493E1,7.494301E1,5.069966E1,8.430909E1,2.0938437E1,1.04163666E2,1.8128207E0,3.277091E1,5.058551E1,1.9803264E0,3.7782166E1,6.642148E1,8.52153E0,3.1711853E1,1.8987806E1,2.2945915E1,6.136317E1,1.5170873E1,5.767563E0,1.7323334E0,1.0243133E2,2.412363E1,8.647277E0,4.8978264E1,1.607247E0,3.6689137E1,1.0930307E0],"tree_param":{"num_deleted":"0","num_feature":"39","num_nodes":"43","size_leaf_vector":"0"}},{"base_weights":[7.434229E-3,1.0055535E0,-2.1497837E-1,-6.3607264E-1,3.2116115E-2,-8.68369E-1,2.1740454E-1,-1.0126624E-1,8.7921E-1,-9.545211E-1,1.9060506E-1,9.0044177E-1,-7.471492E-1,1.2244231E-1,-5.477082E-1,9.8984736E-1,3.958433E-1,-9.859125E-1,8.119871E-1,9.545965E-1,-9.065647E-1,-5.3095055E-1,1.3958224E0,-9.336171E-1,8.063316E-1,-8.2813874E-2,8.403623E-1,-6.1838377E-1,9.181424E-1,1.014748E0,2.8749683E-1,9.098404E-1,-6.470331E-1,1.5817307E-2,-9.982205E-1,4.0580314E-1,-8.1533086E-1,1.6424407E0,-6.835232E-1,1.0241299E-1,-1.0544482E0,4.3429974E-1,-3.403068E-1,1.4458958E0,-5.2598435E-1,2.7069402E-1,-7.5107825E-1,1.4623137E-1,1.1539562E0,-1.0916288E0,6.462699E-2],"categories":[],"categories_nodes":[],"categories_segments":[],"categories_sizes":[],"default_left":[1,0,1,1,1,1,1,1,1,1,1,1,1,1,1,1,1,1,0,0,0,1,1,1,0,1,1,1,1,0,0,0,1,0,0,0,0,0,0,0,0,0,0,0,0,0,0,0,0,0,0],"id":11,"left_children":[1,-1,3,5,7,9,11,13,15,17,19,21,23,25,27,29,31,33,-1,-1,-1,35,37,39,-1,41,43,45,47,-1,-1,-1,49,-1,-1,-1,-1,-1,-1,-1,-1,-1,-1,-1,-1,-1,-1,-1,-1,-1,-1],"loss_changes":[1.0895763E2,0E0,4.1786278E1,2.9627415E1,2.8778353E1,1.0848686E1,2.2129097E1,2.2066113E1,1.460968E0,6.8054657E0,8.937301E0,1.4582132E1,4.822133E0,2.1813297E1,8.204428E0,1.8966866E-1,4.940974E0,1.3331604E0,0E0,0E0,0E0,1.8607643E0,8.700144E0,1.736126E0,0E0,1.554832E1,2.7978619E1,8.57015E0,5.216913E-1,0E0,0E0,0E0,1.1035956E0,0E0,0E0,0E0,0E0,0E0,0E0,0E0,0E0,0E0,0E0,0E0,0E0,0E0,0E0,0E0,0E0,0E0,0E0],"parents":[2147483647,0,0,2,2,3,3,4,4,5,5,6,6,7,7,8,8,9,9,10,10,11,11,12,12,13,13,14,14,15,15,16,16,17,17,21,21,22,22,23,23,25,25,26,26,27,27,28,28,32,32],"right_children":[2,-1,4,6,8,10,12,14,16,18,20,22,24,26,28,30,32,34,-1,-1,-1,36,38,40,-1,42,44,46,48,-1,-1,-1,50,-1,-1,-1,-1,-1,-1,-1,-1,-1,-1,-1,-1,-1,-1,-1,-1,-1,-1],"split_conditions":[8.25E1,3.0166605E-1,1.5E0,1.95E1,1.85E1,5E-1,1.25E1,2.5E0,5.5E0,1.95E1,1.944E3,5.5E0,2E0,4.5E0,1.355E2,2.5E0,3.5E0,5E0,2.4359614E-1,2.8637898E-1,-2.7196944E-1,6.4611006E-1,5.7525E3,5.25E1,2.4189948E-1,1.05E1,1.7351156E-1,1.8E1,1.35E1,3.044244E-1,8.624905E-2,2.7295214E-1,9.25E1,4.7451924E-3,-2.9946616E-1,1.21740945E-1,-2.4459927E-1,4.9273223E-1,-2.0505697E-1,3.0723898E-2,-3.163345E-1,1.3028993E-1,-1.0209204E-1,4.3376875E-1,-1.5779531E-1,8.120821E-2,-2.2532348E-1,4.3869413E-2,3.4618688E-1,-3.2748866E-1,1.9388098E-2],"split_indices":[0,0,19,5,32,33,32,23,4,32,37,37,27,4,2,27,19,2,0,0,0,9,37,8,0,2,17,2,32,0,0,0,14,0,0,0,0,0,0,0,0,0,0,0,0,0,0,0,0,0,0],"split_type":[0,0,0,0,0,0,0,0,0,0,0,0,0,0,0,0,0,0,0,0,0,0,0,0,0,0,0,0,0,0,0,0,0,0,0,0,0,0,0,0,0,0,0,0,0,0,0,0,0,0,0],"sum_hessian":[4.8883893E2,8.84375E1,4.0040143E2,1.4748528E2,2.5291614E2,1.15917755E2,3.1567522E1,2.1927052E2,3.3645615E1,1.0728804E2,8.629712E0,1.8519575E1,1.3047947E1,1.4655746E2,7.271306E1,2.652623E1,7.1193833E0,1.0584896E2,1.4390837E0,5.1638904E0,3.4658217E0,4.7429924E0,1.3776583E1,1.2005871E1,1.042076E0,1.14660286E2,3.1897184E1,6.992002E1,2.7930353E0,2.5188427E1,1.3378028E0,4.854391E0,2.2649922E0,1.2812909E0,1.04567665E2,1.0051239E0,3.7378685E0,1.2503712E1,1.2728711E0,1.2699033E0,1.0735968E1,3.7886852E1,7.677343E1,2.2061716E1,9.835467E0,8.945242E0,6.097478E1,1.0327041E0,1.7603312E0,1.0654527E0,1.1995395E0],"tree_param":{"num_deleted":"0","num_feature":"39","num_nodes":"51","size_leaf_vector":"0"}},{"base_weights":[8.326613E-3,9.973994E-1,-1.8249705E-1,-2.7783126E-1,7.526902E-1,-9.414125E-2,-6.5710616E-1,-6.5532416E-2,9.826188E-1,-2.954509E-1,2.2293918E-1,-1.5712856E-1,-8.546292E-1,4.03765E-1,-3.8415372E-1,1.0019994E0,2.8686476E-1,3.299464E-1,-5.059388E-1,5.6456965E-1,-5.9870446E-1,2.615033E-1,-7.521953E-1,-8.8756984E-1,7.458656E-1,-1.459932E-1,7.041715E-1,-7.743386E-1,3.5577357E-1,6.7626905E-1,-8.679008E-1,-6.442197E-1,2.050428E-1,7.644115E-1,-7.289755E-1,8.0098003E-1,-8.220385E-1,-5.9536E-1,1.3395267E0,2.2741671E-1,-8.9447415E-1,-9.2185754E-1,2.4066567E-1],"categories":[],"categories_nodes":[],"categories_segments":[],"categories_sizes":[],"default_left":[1,0,1,1,1,1,1,1,1,1,1,1,1,1,1,0,0,1,1,1,1,1,1,1,0,0,0,0,0,0,0,0,0,0,0,0,0,0,0,0,0,0,0],"id":12,"left_children":[1,-1,3,5,7,9,11,13,15,17,19,21,23,25,27,-1,-1,29,31,33,35,37,39,41,-1,-1,-1,-1,-1,-1,-1,-1,-1,-1,-1,-1,-1,-1,-1,-1,-1,-1,-1],"loss_changes":[7.816485E1,0E0,3.1163973E1,2.1940447E1,6.1579056E0,1.372149E1,1.0025764E1,1.3577049E0,5.434227E-2,1.7449104E1,2.3817823E1,7.7596264E0,4.5380745E0,7.2044474E-1,1.8064401E0,0E0,0E0,1.4552467E1,9.827961E0,1.5963276E1,8.489314E0,1.7945145E1,1.9868431E0,3.026249E0,0E0,0E0,0E0,0E0,0E0,0E0,0E0,0E0,0E0,0E0,0E0,0E0,0E0,0E0,0E0,0E0,0E0,0E0,0E0],"parents":[2147483647,0,0,2,2,3,3,4,4,5,5,6,6,7,7,8,8,9,9,10,10,11,11,12,12,13,13,14,14,17,17,18,18,19,19,20,20,21,21,22,22,23,23],"right_children":[2,-1,4,6,8,10,12,14,16,18,20,22,24,26,28,-1,-1,30,32,34,36,38,40,42,-1,-1,-1,-1,-1,-1,-1,-1,-1,-1,-1,-1,-1,-1,-1,-1,-1,-1,-1],"split_conditions":[8.25E1,2.9921982E-1,5E-1,5.5E0,1.25E1,8.5E0,2.8639782E-2,2.5E0,1.5E0,1.4854315E-1,4.67E3,1.981E3,9.45E1,6.7231643E-1,1.9895834E-1,3.005998E-1,8.605943E-2,7.5E0,4.5E0,5.605E2,2.5E0,1.91E2,2.5E0,3.5E0,2.2375968E-1,-4.3797962E-2,2.1125145E-1,-2.323016E-1,1.0673208E-1,2.0288073E-1,-2.6037025E-1,-1.9326591E-1,6.151284E-2,2.2932346E-1,-2.1869265E-1,2.4029402E-1,-2.4661155E-1,-1.78608E-1,4.01858E-1,6.822502E-2,-2.6834226E-1,-2.7655727E-1,7.21997E-2],"split_indices":[0,0,18,23,32,5,13,30,18,17,37,37,5,15,17,0,0,19,19,38,30,37,30,24,0,0,0,0,0,0,0,0,0,0,0,0,0,0,0,0,0,0,0],"split_type":[0,0,0,0,0,0,0,0,0,0,0,0,0,0,0,0,0,0,0,0,0,0,0,0,0,0,0,0,0,0,0,0,0,0,0,0,0,0,0,0,0,0,0],"sum_hessian":[4.1217923E2,6.5977806E1,3.4620142E2,3.14812E2,3.1389425E1,2.1293283E2,1.01879166E2,7.042612E0,2.4346813E1,1.3028502E2,8.264781E1,2.9359303E1,7.251987E1,2.7398543E0,4.3027577E0,2.3258766E1,1.0880474E0,3.266473E1,9.762029E1,5.8596783E1,2.4051025E1,1.756371E1,1.1795593E1,7.149385E1,1.026014E0,1.1497576E0,1.5900968E0,2.7867293E0,1.5160285E0,2.5676535E1,6.988194E0,8.180392E1,1.5816378E1,5.1109806E1,7.48698E0,2.953611E0,2.1097414E1,1.0035085E1,7.5286245E0,1.4200357E0,1.0375557E1,6.956272E1,1.9311256E0],"tree_param":{"num_deleted":"0","num_feature":"39","num_nodes":"43","size_leaf_vector":"0"}},{"base_weights":[6.8693715E-3,9.891866E-1,-1.5494804E-1,-5.799366E-1,4.9675696E-2,-7.893565E-1,1.413382E-1,-4.9865663E-2,8.015952E-1,-9.0952975E-1,3.3114165E-1,7.8074217E-1,-6.7766637E-1,1.6772753E-1,-3.4350306E-1,9.0550244E-1,7.007323E-2,-9.492077E-1,6.8067604E-1,9.3144214E-1,-7.812462E-1,-4.1286418E-1,1.1960078E0,3.7759997E-2,-9.491293E-1,-2.04319E-1,7.835312E-1,-4.452999E-1,1.1176395E0,1.0264126E0,3.8615662E-1,-9.030006E-1,6.8140954E-1,-2.3148343E-2,-9.6979856E-1,2.6133943E-1,-7.0384E-1,1.5011756E0,2.7367115E-1,1.0608574E0,-6.9888926E-1,-4.3526188E-1,7.647636E-1,1.2439051E0,-6.301014E-1,4.060123E-1,-5.77874E-1,3.5231945E-1,1.2263395E0,-5.784127E-1,9.3690753E-1],"categories":[],"categories_nodes":[],"categories_segments":[],"categories_sizes":[],"default_left":[1,0,1,1,1,1,1,1,1,1,1,1,1,1,1,1,1,1,0,0,0,1,1,1,0,1,1,1,1,0,1,0,0,0,0,0,0,0,0,0,0,0,0,0,0,0,0,0,0,0,0],"id":13,"left_children":[1,-1,3,5,7,9,11,13,15,17,19,21,23,25,27,29,31,33,-1,-1,-1,35,37,39,-1,41,43,45,47,-1,49,-1,-1,-1,-1,-1,-1,-1,-1,-1,-1,-1,-1,-1,-1,-1,-1,-1,-1,-1,-1],"loss_changes":[5.6454582E1,0E0,2.6549347E1,1.5094475E1,1.5516266E1,1.0672813E1,1.2661492E1,1.1784663E1,1.7784014E0,5.0521355E0,6.199224E0,7.1729145E0,2.1124897E0,2.4466755E1,1.2165983E1,9.307289E-1,3.0529342E0,1.2846489E0,0E0,0E0,0E0,1.0120908E0,2.4752474E0,3.6829536E0,0E0,1.5311771E1,2.6922344E1,8.592439E0,1.6693592E-2,0E0,3.5137634E0,0E0,0E0,0E0,0E0,0E0,0E0,0E0,0E0,0E0,0E0,0E0,0E0,0E0,0E0,0E0,0E0,0E0,0E0,0E0,0E0],"parents":[2147483647,0,0,2,2,3,3,4,4,5,5,6,6,7,7,8,8,9,9,10,10,11,11,12,12,13,13,14,14,15,15,16,16,17,17,21,21,22,22,23,23,25,25,26,26,27,27,28,28,30,30],"right_children":[2,-1,4,6,8,10,12,14,16,18,20,22,24,26,28,30,32,34,-1,-1,-1,36,38,40,-1,42,44,46,48,-1,50,-1,-1,-1,-1,-1,-1,-1,-1,-1,-1,-1,-1,-1,-1,-1,-1,-1,-1,-1,-1],"split_conditions":[8.25E1,2.96756E-1,1.5E0,1.95E1,1.85E1,5E-1,1.25E1,2.586399E-2,6.5E0,1.95E1,1.944E3,5.5E0,1.5E0,5E-1,6.5E0,3.435E2,6.8252265E-1,1.0684845E-1,2.0420282E-1,2.7943265E-1,-2.3437387E-1,-4.7113905E0,2.457E3,2.2730209E-2,-2.847388E-1,3.5E0,3.5E0,-5.1494484E0,1.75E1,3.079238E-1,8E0,-2.709002E-1,2.0442288E-1,-6.944503E-3,-2.9093957E-1,7.8401834E-2,-2.1115202E-1,4.503527E-1,8.2101345E-2,3.1825724E-1,-2.0966679E-1,-1.3057856E-1,2.2942908E-1,3.7317154E-1,-1.8903042E-1,1.2180369E-1,-1.7336221E-1,1.05695836E-1,3.6790186E-1,-1.7352381E-1,2.8107226E-1],"split_indices":[0,0,19,5,32,33,32,11,4,32,37,37,23,27,4,38,3,17,0,0,0,29,37,11,0,19,27,29,16,0,37,0,0,0,0,0,0,0,0,0,0,0,0,0,0,0,0,0,0,0,0],"split_type":[0,0,0,0,0,0,0,0,0,0,0,0,0,0,0,0,0,0,0,0,0,0,0,0,0,0,0,0,0,0,0,0,0,0,0,0,0,0,0,0,0,0,0,0,0,0,0,0,0,0,0],"sum_hessian":[3.531942E2,4.9229877E1,3.0396432E2,9.8192184E1,2.0577216E2,7.602435E1,2.2167831E1,1.8254056E2,2.3231585E1,6.883057E1,7.193784E0,1.2475117E1,9.692714E0,1.0509279E2,7.744778E1,2.0133884E1,3.0977004E0,6.754823E1,1.2823353E0,4.7779994E0,2.4157848E0,3.2214425E0,9.2536745E0,2.9029758E0,6.789738E0,6.592903E1,3.9163754E1,7.305344E1,4.3943458E0,1.5539691E1,4.5941925E0,1.0111476E0,2.0865526E0,1.5154634E0,6.603277E1,1.0018845E0,2.219558E0,6.4815764E0,2.7720978E0,1.0309818E0,1.8719939E0,5.3685944E1,1.224309E1,2.963324E1,9.530514E0,9.565694E0,6.348774E1,1.073985E0,3.320361E0,1.651528E0,2.9426644E0],"tree_param":{"num_deleted":"0","num_feature":"39","num_nodes":"51","size_leaf_vector":"0"}},{"base_weights":[1.0114861E-2,9.802329E-1,-1.2760076E-1,-5.4154307E-1,4.4682037E-2,-7.5513905E-1,1.292847E-1,-5.233901E-2,7.5115544E-1,-8.7460196E-1,2.9830074E-1,6.886853E-1,-6.027422E-1,4.1797444E-1,-2.1609466E-1,-1.7689335E-1,9.8606795E-1,-9.1892886E-1,5.9977955E-1,8.68342E-1,-7.205876E-1,-3.6541286E-1,1.0668534E0,5.2628707E-2,-9.007585E-1,8.3571607E-1,-5.3727233E-1,-2.945558E-1,7.2786325E-1,1.7168897E-1,-6.504139E-1,1.300577E-1,-9.424455E-1,2.2734234E-1,-6.5680647E-1,1.4062842E0,2.1774462E-1,8.9871657E-1,-5.9077764E-1,1.0942991E0,-5.334036E-1,-7.299276E-1,6.365117E-1,2.4545756E-1,-4.5478183E-1,-6.941365E-1,1.2671714E0,6.8469733E-1,-5.619061E-1],"categories":[],"categories_nodes":[],"categories_segments":[],"categories_sizes":[],"default_left":[1,0,1,1,1,1,1,1,1,1,1,1,1,1,1,1,0,1,0,0,0,1,1,1,0,1,1,1,1,1,0,0,0,0,0,0,0,0,0,0,0,0,0,0,0,0,0,0,0],"id":14,"left_children":[1,-1,3,5,7,9,11,13,15,17,19,21,23,25,27,29,-1,31,-1,-1,-1,33,35,37,-1,39,41,43,45,47,-1,-1,-1,-1,-1,-1,-1,-1,-1,-1,-1,-1,-1,-1,-1,-1,-1,-1,-1],"loss_changes":[4.0585503E1,0E0,1.9000038E1,1.1313265E1,1.2980872E1,7.750889E0,8.505832E0,1.294793E1,5.1589537E0,4.0612984E0,4.5796194E0,5.040268E0,1.8231051E0,1.7790195E1,9.434597E0,1.0139335E0,0E0,1.4185715E0,0E0,0E0,0E0,8.100165E-1,2.2418852E0,2.5923526E0,0E0,1.14262295E1,3.5922136E0,1.0117989E1,8.42701E0,1.8673848E0,0E0,0E0,0E0,0E0,0E0,0E0,0E0,0E0,0E0,0E0,0E0,0E0,0E0,0E0,0E0,0E0,0E0,0E0,0E0],"parents":[2147483647,0,0,2,2,3,3,4,4,5,5,6,6,7,7,8,8,9,9,10,10,11,11,12,12,13,13,14,14,15,15,17,17,21,21,22,22,23,23,25,25,26,26,27,27,28,28,29,29],"right_children":[2,-1,4,6,8,10,12,14,16,18,20,22,24,26,28,30,-1,32,-1,-1,-1,34,36,38,-1,40,42,44,46,48,-1,-1,-1,-1,-1,-1,-1,-1,-1,-1,-1,-1,-1,-1,-1,-1,-1,-1,-1],"split_conditions":[8.25E1,2.940699E-1,1.5E0,1.95E1,5E-1,5E-1,1.25E1,1.55E1,1.15E1,1.95E1,1.944E3,5.5E0,1.5E0,1.05E1,2.8511655E-1,2.94E2,2.958204E-1,3.6462776E-2,1.7993388E-1,2.605026E-1,-2.1617629E-1,1.6019736E-1,2.457E3,2.2730209E-2,-2.7022755E-1,3.425E2,1.85E1,1.05E1,3.4881037E-2,4.5E0,-1.9512416E-1,3.9017312E-2,-2.8273368E-1,6.8202704E-2,-1.9704194E-1,4.2188528E-1,6.532339E-2,2.69615E-1,-1.772333E-1,3.2828975E-1,-1.6002108E-1,-2.1897829E-1,1.9095351E-1,7.363727E-2,-1.3643456E-1,-2.0824096E-1,3.8015142E-1,2.0540921E-1,-1.6857183E-1],"split_indices":[0,0,19,5,18,33,32,16,32,32,37,37,23,5,13,38,0,3,0,0,0,17,37,11,0,38,32,2,3,30,0,0,0,0,0,0,0,0,0,0,0,0,0,0,0,0,0,0,0],"split_type":[0,0,0,0,0,0,0,0,0,0,0,0,0,0,0,0,0,0,0,0,0,0,0,0,0,0,0,0,0,0,0,0,0,0,0,0,0,0,0,0,0,0,0,0,0,0,0,0,0],"sum_hessian":[3.018466E2,3.6762264E1,2.6508432E2,7.727442E1,1.8780989E2,5.8516655E1,1.8757767E1,1.6594618E2,2.186372E1,5.270907E1,5.8075852E0,1.0666128E1,8.0916395E0,4.2456577E1,1.234896E2,4.4662538E0,1.7397467E1,5.1536377E1,1.1726931E0,3.8188143E0,1.9887708E0,2.825134E0,7.8409944E0,2.7867255E0,5.3049135E0,2.9625917E1,1.2830662E1,1.1464809E2,8.841515E0,2.9396496E0,1.5266043E0,1.0306917E0,5.0505684E1,1.0035385E0,1.8215955E0,5.132922E0,2.7080722E0,1.0323548E0,1.7543706E0,2.508827E1,4.537646E0,1.1346484E1,1.4841772E0,2.6111609E1,8.8536476E1,2.352243E0,6.4892716E0,1.7691354E0,1.1705142E0],"tree_param":{"num_deleted":"0","num_feature":"39","num_nodes":"49","size_leaf_vector":"0"}},{"base_weights":[1.0439962E-2,9.698622E-1,-1.0493296E-1,-4.9721286E-1,3.5878602E-2,-1.9347462E-1,-9.5439184E-1,-2.1017212E-1,3.1632408E-1,-6.2340003E-1,3.6610496E-1,-1.6093637E-1,-9.834586E-1,-2.621052E-1,9.654687E-1,4.355401E-1,-7.598746E-1,4.3985346E-1,-7.840814E-1,1.3387469E0,-4.403024E-1,-3.1412493E-2,-5.793113E-1,1.0398546E0,2.1929604E-1,-9.42273E-1,3.0544287E-1,8.0169576E-1,-2.4417627E-1,-8.9384377E-1,7.577746E-4,1.9766592E0,9.281771E-1,-9.195229E-1,6.8391186E-1,-3.205456E-1,8.019405E-1,-6.8692046E-1,6.290936E-1,1.3728476E0,-1.1962625E-2,8.5554415E-1,-1.11593716E-1,-1.604616E-1,-1.1148504E0],"categories":[],"categories_nodes":[],"categories_segments":[],"categories_sizes":[],"default_left":[1,0,1,1,1,1,1,1,1,1,1,0,0,1,0,1,1,1,1,1,1,1,1,1,1,1,0,0,0,0,0,0,0,0,0,0,0,0,0,0,0,0,0,0,0],"id":15,"left_children":[1,-1,3,5,7,9,11,13,15,17,19,-1,-1,21,-1,23,25,27,29,31,33,35,37,39,41,43,-1,-1,-1,-1,-1,-1,-1,-1,-1,-1,-1,-1,-1,-1,-1,-1,-1,-1,-1],"loss_changes":[2.9381828E1,0E0,1.311066E1,8.518726E0,1.2166402E1,9.589513E0,4.128704E-1,5.992447E0,1.0896122E1,4.1675606E0,1.4344193E1,0E0,0E0,6.627296E0,0E0,9.542945E0,1.954359E0,1.0813711E0,1.70611E0,3.1202888E-1,6.1995697E0,1.3180167E1,5.396861E0,6.824278E0,1.1955222E1,8.4216166E-1,0E0,0E0,0E0,0E0,0E0,0E0,0E0,0E0,0E0,0E0,0E0,0E0,0E0,0E0,0E0,0E0,0E0,0E0,0E0],"parents":[2147483647,0,0,2,2,3,3,4,4,5,5,6,6,7,7,8,8,9,9,10,10,13,13,15,15,16,16,17,17,18,18,19,19,20,20,21,21,22,22,23,23,24,24,25,25],"right_children":[2,-1,4,6,8,10,12,14,16,18,20,-1,-1,22,-1,24,26,28,30,32,34,36,38,40,42,44,-1,-1,-1,-1,-1,-1,-1,-1,-1,-1,-1,-1,-1,-1,-1,-1,-1,-1,-1],"split_conditions":[8.25E1,2.9095867E-1,1.5E0,4.552E3,1.35E1,5.5E0,1.106679E-1,5E-1,-4.2484813E0,1.2387118E-1,5.895E2,-4.8280913E-2,-2.950376E-1,2.5E0,2.8964064E-1,4.5E0,2.2412425E-1,8.396694E-1,1.55E1,6.6E1,4.325E3,5.33847E-3,1.125E2,1.9083738E-2,1.5097822E-1,2E1,9.1632865E-2,2.4050874E-1,-7.325289E-2,-2.6815313E-1,2.2733238E-4,5.929978E-1,2.7845314E-1,-2.7585688E-1,2.0517357E-1,-9.616369E-2,2.4058215E-1,-2.0607615E-1,1.8872808E-1,4.118543E-1,-3.5887877E-3,2.5666326E-1,-3.3478115E-2,-4.8138484E-2,-3.3445513E-1],"split_indices":[0,0,19,37,32,37,17,26,29,17,37,0,0,10,0,12,17,3,32,38,37,11,2,11,17,38,0,0,0,0,0,0,0,0,0,0,0,0,0,0,0,0,0,0,0],"split_type":[0,0,0,0,0,0,0,0,0,0,0,0,0,0,0,0,0,0,0,0,0,0,0,0,0,0,0,0,0,0,0,0,0,0,0,0,0,0,0,0,0,0,0,0,0],"sum_hessian":[2.6351987E2,2.7492275E1,2.3602757E2,6.1676113E1,1.7435146E2,3.7911716E1,2.3764399E1,9.3004196E1,8.134727E1,2.1375134E1,1.6536581E1,1.0708009E0,2.2693598E1,8.981379E1,3.190405E0,7.3770615E1,7.5766506E0,2.5780895E0,1.8797045E1,7.1964736E0,9.340108E0,5.2633995E1,3.7179794E1,1.8437256E1,5.5333363E1,6.567667E0,1.0089834E0,1.5736378E0,1.0044516E0,1.636891E1,2.428135E0,1.3243579E0,5.8721156E0,6.6762767E0,2.6638312E0,3.953323E1,1.3100762E1,3.45359E1,2.6438932E0,1.3771991E1,4.6652646E0,1.8388887E1,3.6944477E1,1.5365542E0,5.031113E0],"tree_param":{"num_deleted":"0","num_feature":"39","num_nodes":"45","size_leaf_vector":"0"}},{"base_weights":[1.3234767E-2,9.573782E-1,-8.2740486E-2,-1.467232E-1,6.589478E-1,-7.151966E-2,-7.811711E-1,-3.3221683E-1,8.3132607E-1,-1.0090526E-1,1.3135662E0,-8.773258E-1,5.300933E-1,-5.5289054E-1,4.5556862E-2,-1.204486E-1,9.090528E-1,2.5700048E-1,-2.3315409E-1,-1.3218114E-1,-1.0060843E0,-3.626225E-1,4.301018E-1,-4.5235312E-1,7.43734E-2,3.465269E-1,-5.054965E-1],"categories":[],"categories_nodes":[],"categories_segments":[],"categories_sizes":[],"default_left":[1,0,1,1,1,1,1,1,1,1,0,1,0,0,0,0,0,1,1,1,0,0,0,0,0,0,0],"id":16,"left_children":[1,-1,3,5,7,9,11,13,15,17,-1,19,-1,-1,-1,-1,-1,21,23,25,-1,-1,-1,-1,-1,-1,-1],"loss_changes":[2.1217375E1,0E0,1.0189045E1,9.324442E0,3.192934E0,7.3312893E0,3.079217E0,2.955906E-1,1.2064352E0,8.301507E0,0E0,1.756484E0,0E0,0E0,0E0,0E0,0E0,5.2458982E0,8.639534E0,8.9944804E-1,0E0,0E0,0E0,0E0,0E0,0E0,0E0],"parents":[2147483647,0,0,2,2,3,3,4,4,5,5,6,6,7,7,8,8,9,9,11,11,17,17,18,18,19,19],"right_children":[2,-1,4,6,8,10,12,14,16,18,-1,20,-1,-1,-1,-1,-1,22,24,26,-1,-1,-1,-1,-1,-1,-1],"split_conditions":[8.25E1,2.8721347E-1,5E-1,7.73E2,1.05E1,6.825E2,5E-1,1.8197946E-1,3.7987016E-2,1.4900225E-1,3.9406988E-1,1.4009346E-1,1.59028E-1,-1.6586716E-1,1.3667059E-2,-3.6134582E-2,2.7271584E-1,1.05E1,8.5E0,8.5E0,-3.018253E-1,-1.08786754E-1,1.2903056E-1,-1.3570595E-1,2.231202E-2,1.0395807E-1,-1.5164895E-1],"split_indices":[0,0,18,38,32,38,7,17,3,17,0,17,0,0,0,0,0,32,5,5,0,0,0,0,0,0,0],"split_type":[0,0,0,0,0,0,0,0,0,0,0,0,0,0,0,0,0,0,0,0,0,0,0,0,0,0,0],"sum_hessian":[2.3227596E2,2.0604708E1,2.1167125E2,1.9559976E2,1.607149E1,1.7586638E2,1.9733387E1,2.2436094E0,1.3827881E1,1.7312064E2,2.7457323E0,1.8693527E1,1.03986E0,1.1236739E0,1.1199355E0,1.0024989E0,1.2825381E1,4.6455246E1,1.266654E2,3.052844E0,1.5640682E1,9.905011E0,3.6550232E1,7.367821E1,5.298719E1,1.3690493E0,1.6837947E0],"tree_param":{"num_deleted":"0","num_feature":"39","num_nodes":"27","size_leaf_vector":"0"}},{"base_weights":[1.3336253E-2,9.4206804E-1,-6.343409E-2,9.830007E-2,-3.3884308E-1,9.307598E-1,2.7829425E-2,-4.182294E-1,6.6242564E-1,1.5861543E0,2.5139658E-2,-6.3758016E-2,5.2292496E-1,3.281197E-1,-5.030502E-1,-7.9954855E-2,9.405562E-1,1.8392487E0,3.1229576E-1,4.747741E-1,-4.0931332E-1,-2.8970268E-1,1.9899207E-1,1.1338766E0,-8.1838764E-2,8.4619063E-1,-7.7451915E-1,-5.4928243E-1,9.610942E-1,8.0299675E-1,2.2826533E0,-5.669087E-1,-3.5455924E-2,-4.7026813E-1,6.601979E-1,-1.0456051E-1,8.8810104E-1,2.3674902E-1,1.3040323E0,8.9492005E-1,-4.617369E-1,1.2412403E0,-3.835892E-1,-2.1512325E-1,-7.537133E-1],"categories":[],"categories_nodes":[],"categories_segments":[],"categories_sizes":[],"default_left":[1,0,1,1,1,1,1,1,1,1,1,1,1,1,1,0,0,1,0,0,1,1,1,1,1,1,0,1,0,0,0,0,0,0,0,0,0,0,0,0,0,0,0,0,0],"id":17,"left_children":[1,-1,3,5,7,9,11,13,15,17,19,21,23,25,27,-1,-1,29,-1,-1,31,33,35,37,39,41,-1,43,-1,-1,-1,-1,-1,-1,-1,-1,-1,-1,-1,-1,-1,-1,-1,-1,-1],"loss_changes":[1.5400562E1,0E0,8.927248E0,7.399295E0,6.166957E0,5.8050947E0,5.3714814E0,4.550173E0,1.2790604E0,1.2623606E0,1.200488E0,6.008439E0,6.9232664E0,5.039173E0,4.7649746E0,0E0,0E0,2.5683784E-1,0E0,0E0,1.6587955E-1,9.62405E0,9.911154E0,1.1053724E0,4.206674E0,3.2447877E0,0E0,4.0264263E0,0E0,0E0,0E0,0E0,0E0,0E0,0E0,0E0,0E0,0E0,0E0,0E0,0E0,0E0,0E0,0E0,0E0],"parents":[2147483647,0,0,2,2,3,3,4,4,5,5,6,6,7,7,8,8,9,9,10,10,11,11,12,12,13,13,14,14,17,17,20,20,21,21,22,22,23,23,24,24,25,25,27,27],"right_children":[2,-1,4,6,8,10,12,14,16,18,20,22,24,26,28,-1,-1,30,-1,-1,32,34,36,38,40,42,-1,44,-1,-1,-1,-1,-1,-1,-1,-1,-1,-1,-1,-1,-1,-1,-1,-1,-1],"split_conditions":[8.25E1,2.8262043E-1,2.5E0,2.5E0,5E-1,6.8E1,5E-1,1.75E1,6.5E0,-4.339427E0,1.19146824E-1,5E-1,1.0582307E-2,3.5E0,1.85E1,-2.3986457E-2,2.8216687E-1,1.531072E-1,9.3688734E-2,1.4243223E-1,9.6E1,-4.054047E0,3.5E0,9.75E1,6.45E1,5E-1,-2.3235576E-1,5.5E0,2.8832826E-1,2.4089904E-1,6.8479604E-1,-1.7007262E-1,-1.0636778E-2,-1.4108044E-1,1.9805938E-1,-3.1368155E-2,2.6643032E-1,7.102471E-2,3.9120972E-1,2.6847604E-1,-1.3852108E-1,3.723721E-1,-1.15076765E-1,-6.453698E-2,-2.26114E-1],"split_indices":[0,0,23,5,33,38,36,2,12,29,3,27,11,21,23,0,0,17,0,0,0,29,4,0,8,36,0,12,0,0,0,0,0,0,0,0,0,0,0,0,0,0,0,0,0],"split_type":[0,0,0,0,0,0,0,0,0,0,0,0,0,0,0,0,0,0,0,0,0,0,0,0,0,0,0,0,0,0,0,0,0,0,0,0,0,0,0,0,0,0,0,0,0],"sum_hessian":[2.141614E2,1.5490713E1,1.9867068E2,1.25571686E2,7.3099E1,8.847669E0,1.1672402E2,6.826858E1,4.8304243E0,4.6970043E0,4.150664E0,9.923737E1,1.7486645E1,6.674082E0,6.1594494E1,1.5106786E0,3.3197455E0,3.5481968E0,1.1488078E0,1.994087E0,2.1565769E0,5.3300503E1,4.593687E1,8.263592E0,9.223054E0,4.698898E0,1.9751838E0,6.031482E1,1.2796738E0,1.9056373E0,1.6425594E0,1.1538202E0,1.0027568E0,4.5211277E1,8.089228E0,3.2478397E1,1.3458471E1,1.6987073E0,6.5648847E0,2.2030616E0,7.019992E0,3.5493877E0,1.1495103E0,2.3672485E1,3.6642338E1],"tree_param":{"num_deleted":"0","num_feature":"39","num_nodes":"45","size_leaf_vector":"0"}},{"base_weights":[2.2031443E-2,9.232186E-1,-3.9333764E-2,-4.0248162E-1,7.154382E-2,-7.231617E-5,-7.862335E-1,-1.20500185E-1,2.915305E-1,-5.1697755E-1,1.2058322E0,5.6785154E-1,-8.863244E-1,1.3316585E0,-1.6562119E-1,9.275395E-1,8.740811E-2,3.5781664E-1,-6.832275E-1,-9.503123E-1,1.5673086E-1,-4.116258E-1,1.3165388E-1,1.0973237E0,-3.2154277E-1,5.790699E-1,-2.3037763E-1,-1.4649066E-1,6.876017E-1,-8.9072025E-1,-5.8317576E-2,-2.1669795E-1,-9.803083E-1,-6.89594E-1,3.3556297E-1,-3.6036584E-1,6.6766274E-1,1.6592772E-1,1.2591914E0,7.3415536E-1,-8.930899E-1,-5.167992E-1,4.0245607E-1],"categories":[],"categories_nodes":[],"categories_segments":[],"categories_sizes":[],"default_left":[1,0,1,1,1,1,1,1,1,1,0,0,1,0,1,1,1,1,1,1,0,1,1,1,0,1,1,0,0,0,0,0,0,0,0,0,0,0,0,0,0,0,0],"id":18,"left_children":[1,-1,3,5,7,9,11,13,15,17,-1,-1,19,-1,21,23,25,27,29,31,-1,33,35,37,-1,39,41,-1,-1,-1,-1,-1,-1,-1,-1,-1,-1,-1,-1,-1,-1,-1,-1],"loss_changes":[1.10113125E1,0E0,7.548853E0,6.769379E0,6.1156754E0,1.4584969E1,3.5443897E0,5.3019757E0,8.665937E0,2.6263623E0,0E0,0E0,1.569521E0,0E0,5.619777E0,3.802432E0,8.275251E0,6.448608E-1,1.7771025E0,2.3198318E-1,0E0,8.930805E0,9.528735E0,1.9840908E0,0E0,5.3914723E0,6.074794E0,0E0,0E0,0E0,0E0,0E0,0E0,0E0,0E0,0E0,0E0,0E0,0E0,0E0,0E0,0E0,0E0],"parents":[2147483647,0,0,2,2,3,3,4,4,5,5,6,6,7,7,8,8,9,9,12,12,14,14,15,15,16,16,17,17,18,18,19,19,21,21,22,22,23,23,25,25,26,26],"right_children":[2,-1,4,6,8,10,12,14,16,18,-1,-1,20,-1,22,24,26,28,30,32,-1,34,36,38,-1,40,42,-1,-1,-1,-1,-1,-1,-1,-1,-1,-1,-1,-1,-1,-1,-1,-1],"split_conditions":[8.25E1,2.769656E-1,1.5E0,5.895E2,1.35E1,5.5E0,1.15E1,4.25E1,1.7483816E-1,1.2387118E-1,3.6174968E-1,1.7035547E-1,3.5E0,3.9949757E-1,2.5E0,1.262E3,1.545923E-1,1.6127646E-1,-4.2113276E0,-4.7976036E0,4.7019262E-2,7.470572E-1,9.189538E-2,-4.8548603E0,-9.646284E-2,-4.2062116E0,7.601653E-1,-4.39472E-2,2.0628051E-1,-2.672161E-1,-1.7495273E-2,-6.5009385E-2,-2.940925E-1,-2.068782E-1,1.006689E-1,-1.0810976E-1,2.0029883E-1,4.977832E-2,3.7775743E-1,2.2024661E-1,-2.67927E-1,-1.5503977E-1,1.2073683E-1],"split_indices":[0,0,19,37,32,37,8,14,3,17,0,0,27,0,4,38,17,13,29,29,0,15,13,29,0,29,9,0,0,0,0,0,0,0,0,0,0,0,0,0,0,0,0],"split_type":[0,0,0,0,0,0,0,0,0,0,0,0,0,0,0,0,0,0,0,0,0,0,0,0,0,0,0,0,0,0,0,0,0,0,0,0,0,0,0,0,0,0,0],"sum_hessian":[1.9745738E2,1.1693036E1,1.8576434E2,4.2836308E1,1.4292804E2,2.1398077E1,2.1438229E1,7.655195E1,6.637609E1,1.5377766E1,6.0203114E0,1.1539257E0,2.0284304E1,1.4476675E0,7.510428E1,1.526598E1,5.111011E1,2.2717443E0,1.3106021E1,1.9195631E1,1.0886724E0,4.0885532E1,3.421875E1,1.3546184E1,1.7197969E0,1.9742825E1,3.1367289E1,1.1179599E0,1.1537845E0,9.519758E0,3.5862632E0,1.0771011E0,1.811853E1,2.9855728E1,1.1029804E1,1.8012335E1,1.6206413E1,2.3054695E0,1.1240714E1,1.8314754E1,1.4280701E0,2.1720095E1,9.647193E0],"tree_param":{"num_deleted":"0","num_feature":"39","num_nodes":"43","size_leaf_vector":"0"}},{"base_weights":[2.0592332E-2,9.002028E-1,-3.0736992E-2,-6.7773916E-2,9.374354E-1,5.3882547E-2,-3.4158394E-1,1.0340507E0,2.3447968E-1,-4.7307744E-4,1.6014799E0,-4.845631E-1,3.6691448E-1,6.7120835E-2,-6.7625976E-1,3.5033274E-1,-6.4054835E-1,1.14051E0,-1.4181912E-1,-1.4106666E-1,3.8770643E-1,5.676891E-1,-9.2729867E-1,-4.7369114E-1,1.2249706E0,-7.2059083E-1,5.020965E-1,6.0980654E-1,-5.4660636E-1],"categories":[],"categories_nodes":[],"categories_segments":[],"categories_sizes":[],"default_left":[1,0,1,1,1,1,1,0,0,1,0,1,1,1,1,1,1,0,1,0,0,0,0,0,0,0,0,0,0],"id":19,"left_children":[1,-1,3,5,7,9,11,-1,-1,13,-1,15,17,19,21,23,25,-1,27,-1,-1,-1,-1,-1,-1,-1,-1,-1,-1],"loss_changes":[8.085958E0,0E0,6.145254E0,5.4909816E0,1.8653107E-1,9.642039E0,5.311295E0,0E0,0E0,5.1488113E0,0E0,5.771928E0,3.734641E0,6.8940253E0,3.726985E0,5.879125E0,3.6768036E0,0E0,2.2702456E0,0E0,0E0,0E0,0E0,0E0,0E0,0E0,0E0,0E0,0E0],"parents":[2147483647,0,0,2,2,3,3,4,4,5,5,6,6,9,9,11,11,12,12,13,13,14,14,15,15,16,16,18,18],"right_children":[2,-1,4,6,8,10,12,-1,-1,14,-1,16,18,20,22,24,26,-1,28,-1,-1,-1,-1,-1,-1,-1,-1,-1,-1],"split_conditions":[8.25E1,2.7006087E-1,5E-1,4.566E3,1.6973028E-1,4.431E3,3.5E0,3.1021523E-1,7.0343904E-2,5.605E2,4.8044398E-1,2.5E0,5.425374E-1,1.35E1,5.119048E-1,8.5E0,1.85E1,3.42153E-1,3.561615E-2,-4.232E-2,1.1631193E-1,1.7030674E-1,-2.781896E-1,-1.4210735E-1,3.674912E-1,-2.1617725E-1,1.5062895E-1,1.8294197E-1,-1.6398191E-1],"split_indices":[0,0,26,37,13,37,19,0,0,38,0,30,9,32,3,5,32,0,13,0,0,0,0,0,0,0,0,0,0],"split_type":[0,0,0,0,0,0,0,0,0,0,0,0,0,0,0,0,0,0,0,0,0,0,0,0,0,0,0,0,0],"sum_hessian":[1.774789E2,8.873826E0,1.6860507E2,1.6328854E2,5.3165197E0,1.1361258E2,4.967597E1,4.2600126E0,1.0565073E0,1.1072338E2,2.8891973E0,4.159743E1,8.078538E0,1.0147434E2,9.249045E0,6.352161E0,3.524527E1,2.7122889E0,5.3662486E0,6.1861565E1,3.9612774E1,1.3412951E0,7.9077497E0,3.506753E0,2.845408E0,3.3283142E1,1.9621252E0,1.7010963E0,3.6651523E0],"tree_param":{"num_deleted":"0","num_feature":"39","num_nodes":"29","size_leaf_vector":"0"}},{"base_weights":[2.431467E-2,-3.3141475E-2,6.5971977E-1,-1.0272563E-1,4.6271503E-1,-2.7448437E-1,8.162842E-1,1.9470955E-1,-2.2555538E-1,8.433289E-1,-2.0879762E-1,2.9499423E-2,8.847624E-1,4.7733325E-1,-4.6472773E-1,5.636638E-1,-2.9756534E-1,2.704469E-1,1.2576604E0,-6.4191866E-1,6.446898E-1,-5.284934E-3,8.855365E-1,-7.761468E-1,1.6721407E-1,1.1290958E0,-5.464788E-1,1.1482297E-1,-4.3563148E-1,8.6967605E-1,-4.6913955E-1,1.4407095E0,4.6278402E-1,-7.819515E-1,-2.988833E-3,-2.3851207E-1,1.3479642E0,1.2571514E0,-1.4757259E-1,-9.0906906E-1,-2.4279281E-2,-4.7782725E-1,4.792491E-1,3.559529E-1,1.2294244E0,-1.17889546E-1,-6.766347E-1,-6.8883106E-2,1.3774829E0,-4.8166618E-1,8.5166925E-1,-6.1507314E-1,-1.2223049E-1],"categories":[],"categories_nodes":[],"categories_segments":[],"categories_sizes":[],"default_left":[1,1,1,1,1,0,1,1,1,1,1,0,0,1,1,1,1,1,1,1,0,1,1,1,1,1,1,1,1,0,1,0,0,0,0,0,0,0,0,0,0,0,0,0,0,0,0,0,0,0,0,0,0],"id":20,"left_children":[1,3,5,7,9,-1,11,13,15,17,19,-1,-1,21,23,25,27,29,31,33,-1,35,37,39,41,43,45,47,49,-1,51,-1,-1,-1,-1,-1,-1,-1,-1,-1,-1,-1,-1,-1,-1,-1,-1,-1,-1,-1,-1,-1,-1],"loss_changes":[6.0980077E0,5.34676E0,2.2497258E0,4.994334E0,5.053199E0,0E0,6.2653255E-1,7.7027383E0,5.644168E0,2.5978107E0,3.261944E0,0E0,0E0,5.6372385E0,2.5993664E0,5.891471E0,5.1151147E0,3.2748206E0,3.3848667E-1,4.997759E-1,0E0,4.770178E0,6.1345243E0,8.357601E-1,1.228393E0,1.9515514E-2,1.15997314E-1,5.454165E0,4.372102E0,0E0,1.0428065E-1,0E0,0E0,0E0,0E0,0E0,0E0,0E0,0E0,0E0,0E0,0E0,0E0,0E0,0E0,0E0,0E0,0E0,0E0,0E0,0E0,0E0,0E0],"parents":[2147483647,0,0,1,1,2,2,3,3,4,4,6,6,7,7,8,8,9,9,10,10,13,13,14,14,15,15,16,16,17,17,18,18,19,19,21,21,22,22,23,23,24,24,25,25,26,26,27,27,28,28,30,30],"right_children":[2,4,6,8,10,-1,12,14,16,18,20,-1,-1,22,24,26,28,30,32,34,-1,36,38,40,42,44,46,48,50,-1,52,-1,-1,-1,-1,-1,-1,-1,-1,-1,-1,-1,-1,-1,-1,-1,-1,-1,-1,-1,-1,-1,-1],"split_conditions":[5E-1,2.7975652E-1,1.05E1,2.75E1,1.05E1,-8.2345314E-2,4.5558326E-2,5E-1,1E0,1.025E2,3.5E0,8.849828E-3,2.6542872E-1,4.8766155E-3,1.35E1,-4.6553755E0,2.8708791E-2,8.65E1,3.5E0,5E-1,1.9340695E-1,2.5E0,1.4459583E-1,5E-1,1.6585761E-1,1.24355674E-1,1.595E2,7.5E0,1.08E2,2.6090282E-1,1.25E1,4.3221286E-1,1.388352E-1,-2.3458545E-1,-8.9664996E-4,-7.1553625E-2,4.0438926E-1,3.7714544E-1,-4.427178E-2,-2.7272072E-1,-7.283785E-3,-1.4334819E-1,1.4377473E-1,1.0678587E-1,3.688273E-1,-3.5366867E-2,-2.0299043E-1,-2.0664932E-2,4.1324487E-1,-1.4449985E-1,2.555008E-1,-1.8452194E-1,-3.666915E-2],"split_indices":[18,13,32,2,10,0,3,21,28,0,30,0,0,11,32,29,13,0,4,33,0,4,13,36,17,17,38,4,5,0,32,0,0,0,0,0,0,0,0,0,0,0,0,0,0,0,0,0,0,0,0,0,0],"split_type":[0,0,0,0,0,0,0,0,0,0,0,0,0,0,0,0,0,0,0,0,0,0,0,0,0,0,0,0,0,0,0,0,0,0,0,0,0,0,0,0,0,0,0,0,0,0,0,0,0,0,0,0,0],"sum_hessian":[1.6543355E2,1.5258406E2,1.2849485E1,1.3450204E2,1.8082008E1,1.7362549E0,1.111323E1,3.913953E1,9.536252E1,1.1377416E1,6.7045927E0,1.0043606E0,1.010887E1,2.759075E1,1.154878E1,7.4026737E0,8.795985E1,5.4687257E0,5.90869E0,4.6120124E0,2.0925803E0,1.3095275E1,1.4495476E1,7.5834727E0,3.965307E0,4.8932886E0,2.5093849E0,2.2104496E1,6.585535E1,2.9238572E0,2.5448682E0,4.1422844E0,1.7664056E0,3.5993135E0,1.012699E0,1.1872794E1,1.2224805E0,1.0501255E1,3.9942207E0,6.2665343E0,1.3169386E0,1.1195788E0,2.8457282E0,1.0844295E0,3.808859E0,1.0284771E0,1.4809077E0,2.0122318E1,1.982177E0,6.418585E1,1.669495E0,1.2472008E0,1.2976675E0],"tree_param":{"num_deleted":"0","num_feature":"39","num_nodes":"53","size_leaf_vector":"0"}},{"base_weights":[3.187205E-2,8.552735E-1,-6.7887404E-3,-3.1484818E-1,7.82994E-2,3.726652E-2,-7.190367E-1,1.8638122E-1,-3.7794685E-1,-4.3037724E-1,1.1307595E0,-8.303181E-1,4.0402442E-1,3.2342497E-1,-2.8357196E-1,-5.42607E-1,7.613924E-1,3.4915E-1,-6.194906E-1,-8.9586085E-1,-1.9263321E-1,8.704844E-2,6.819738E-1,6.880982E-1,-5.413647E-1,-6.574998E-1,3.4573445E-1,6.1842525E-1,-8.2457975E-2,-8.694154E-1,1.4413924E-2,-2.1172686E-1,-9.37922E-1,-3.8404784E-1,3.521162E-1,-2.925611E-1,9.789626E-1,-4.3752483E-1,1.1677872E0,-6.939862E-1,4.9646628E-1,-7.1336865E-1,1.3515796E-1],"categories":[],"categories_nodes":[],"categories_segments":[],"categories_sizes":[],"default_left":[1,0,1,1,1,1,1,1,1,1,0,1,0,1,1,1,0,1,1,1,0,1,1,1,1,1,0,0,0,0,0,0,0,0,0,0,0,0,0,0,0,0,0],"id":21,"left_children":[1,-1,3,5,7,9,11,13,15,17,-1,19,-1,21,23,25,-1,27,29,31,-1,33,35,37,39,41,-1,-1,-1,-1,-1,-1,-1,-1,-1,-1,-1,-1,-1,-1,-1,-1,-1],"loss_changes":[4.8724856E0,0E0,3.8782618E0,4.5835505E0,5.790544E0,9.722794E0,2.2045774E0,6.174796E0,4.642968E0,2.1881127E0,0E0,4.0983963E-1,0E0,6.177931E0,5.8475895E0,2.2975335E0,0E0,4.2882305E-1,1.7749934E0,1.5714073E-1,0E0,5.8169217E0,8.707032E0,3.2233112E0,3.1693811E0,9.070616E-1,0E0,0E0,0E0,0E0,0E0,0E0,0E0,0E0,0E0,0E0,0E0,0E0,0E0,0E0,0E0,0E0,0E0],"parents":[2147483647,0,0,2,2,3,3,4,4,5,5,6,6,7,7,8,8,9,9,11,11,13,13,14,14,15,15,17,17,18,18,19,19,21,21,22,22,23,23,24,24,25,25],"right_children":[2,-1,4,6,8,10,12,14,16,18,-1,20,-1,22,24,26,-1,28,30,32,-1,34,36,38,40,42,-1,-1,-1,-1,-1,-1,-1,-1,-1,-1,-1,-1,-1,-1,-1,-1,-1],"split_conditions":[8.25E1,2.5658205E-1,1.5E0,5.895E2,1.5E0,5.5E0,3.3277965E-1,1.05E1,1.95E1,1.25E1,3.3922786E-1,2.5E0,1.21207334E-1,7.5E0,6.425668E-1,5.5E0,2.2841774E-1,5.755203E-1,-4.2113276E0,-4.7810144E0,-5.7789966E-2,1.15E1,6.35E1,2.0639679E-1,1.85E1,5.5E0,1.0372034E-1,1.8552758E-1,-2.4737393E-2,-2.6082462E-1,4.3241773E-3,-6.351806E-2,-2.813766E-1,-1.15214355E-1,1.0563486E-1,-8.776834E-2,2.936888E-1,-1.3125746E-1,3.5033616E-1,-2.0819587E-1,1.489399E-1,-2.1401061E-1,4.054739E-2],"split_indices":[0,0,19,37,31,37,17,5,32,16,0,27,0,5,15,21,0,9,29,29,0,32,14,3,32,19,0,0,0,0,0,0,0,0,0,0,0,0,0,0,0,0,0],"split_type":[0,0,0,0,0,0,0,0,0,0,0,0,0,0,0,0,0,0,0,0,0,0,0,0,0,0,0,0,0,0,0,0,0,0,0,0,0,0,0,0,0,0,0],"sum_hessian":[1.518799E2,5.86406E0,1.4601584E2,3.1017504E1,1.1499834E2,1.7061731E1,1.3955774E1,9.345171E1,2.1546625E1,1.2375596E1,4.6861343E0,1.2934766E1,1.0210085E0,7.25942E1,2.0857512E1,1.9283482E1,2.2631433E0,2.2509427E0,1.0124654E1,1.1362079E1,1.5726868E0,4.4499973E1,2.8094229E1,4.0233912E0,1.683412E1,1.7305187E1,1.9782932E0,1.119598E0,1.1313446E0,6.995189E0,3.1294644E0,1.0075665E0,1.0354512E1,1.5861314E1,2.863866E1,6.5654287E0,2.15288E1,1.2285093E0,2.7948818E0,1.4964745E1,1.8693758E0,1.6259218E1,1.045969E0],"tree_param":{"num_deleted":"0","num_feature":"39","num_nodes":"43","size_leaf_vector":"0"}},{"base_weights":[2.6300365E-2,-1.9897504E-2,5.937882E-1,2.92691E-2,-5.5487585E-1,-3.9880697E-2,8.1361973E-1,1.6774192E-1,-1.9915165E-1,-7.6146805E-1,2.3942785E-1,2.4128032E-1,-3.952512E-1,7.144932E-1,-5.8637213E-2,-6.343385E-1,-2.6708774E-2,-1.04028836E-1,-8.4362686E-1,5.64524E-1,-1.9689934E-1,2.2222167E-1,1.0255793E0,1.8327825E-1,-5.091345E-1,-9.319305E-1,-1.0481886E-1,7.9967046E-1,-2.1397197E-1,-4.1294175E-1,8.784165E-1,1.2110225E0,1.7307371E-1,9.5023197E-1,1.3944119E-2,-9.4746804E-1,4.1654684E-2,4.08395E-1,-4.434342E-1,9.125466E-1,1.0472869E-1,3.3458862E-1,-5.4528135E-1],"categories":[],"categories_nodes":[],"categories_segments":[],"categories_sizes":[],"default_left":[1,1,1,1,1,1,0,1,1,1,1,0,0,1,1,1,1,0,0,0,0,1,1,1,1,0,1,1,1,0,0,0,0,0,0,0,0,0,0,0,0,0,0],"id":22,"left_children":[1,3,5,7,9,11,-1,13,15,17,19,-1,-1,21,23,25,27,-1,-1,-1,-1,29,31,33,35,-1,37,39,41,-1,-1,-1,-1,-1,-1,-1,-1,-1,-1,-1,-1,-1,-1],"loss_changes":[3.6886377E0,3.4529223E0,1.507659E0,3.8483E0,1.995147E0,4.6315035E-1,0E0,9.4031105E0,3.4334464E0,3.9870787E-1,5.4251975E-1,0E0,0E0,3.1750774E0,6.0230937E0,1.9515481E0,5.4284973E0,0E0,0E0,0E0,0E0,4.481263E0,1.8993483E0,4.6797647E0,4.6929364E0,0E0,1.1900128E0,4.133191E-1,5.3595705E0,0E0,0E0,0E0,0E0,0E0,0E0,0E0,0E0,0E0,0E0,0E0,0E0,0E0,0E0],"parents":[2147483647,0,0,1,1,2,2,3,3,4,4,5,5,7,7,8,8,9,9,10,10,13,13,14,14,15,15,16,16,21,21,22,22,23,23,24,24,26,26,27,27,28,28],"right_children":[2,4,6,8,10,12,-1,14,16,18,20,-1,-1,22,24,26,28,-1,-1,-1,-1,30,32,34,36,-1,38,40,42,-1,-1,-1,-1,-1,-1,-1,-1,-1,-1,-1,-1,-1,-1],"split_conditions":[5E-1,7.73E2,1.15E1,3.3195592E-2,2.3635E3,3.04E2,2.4408592E-1,-4.637169E0,2.5E0,1.3230279E-1,7.286164E-1,7.23841E-2,-1.1857537E-1,1.15E1,4.5E0,7.616863E-1,-5.099145E0,-3.1208651E-2,-2.5308806E-1,1.6935721E-1,-5.9069805E-2,2.5E0,2.5E0,5.65E1,7.876402E-1,-2.7957916E-1,7.359729E-1,1.615E2,5E-1,-1.2388253E-1,2.6352495E-1,3.6330676E-1,5.1922116E-2,2.850696E-1,4.183236E-3,-2.8424042E-1,1.2496405E-2,1.225185E-1,-1.3303027E-1,2.7376398E-1,3.141861E-2,1.0037659E-1,-1.6358441E-1],"split_indices":[18,38,32,11,38,38,0,29,30,17,9,0,0,32,4,15,29,0,0,0,0,4,23,8,9,0,3,14,24,0,0,0,0,0,0,0,0,0,0,0,0,0,0],"split_type":[0,0,0,0,0,0,0,0,0,0,0,0,0,0,0,0,0,0,0,0,0,0,0,0,0,0,0,0,0,0,0,0,0,0,0,0,0,0,0,0,0,0,0],"sum_hessian":[1.3924721E2,1.2965706E2,9.590142E0,1.1960974E2,1.0047315E1,2.6809196E0,6.9092226E0,7.463207E1,4.4977676E1,8.006282E0,2.0410326E0,1.6759737E0,1.0049461E0,2.1221554E1,5.3410515E1,1.2004324E1,3.297335E1,1.1411258E0,6.865156E0,1.0012316E0,1.0398009E0,8.881521E0,1.2340033E1,3.513585E1,1.8274666E1,7.198683E0,4.805641E0,5.4874263E0,2.7485926E1,4.701454E0,4.1800675E0,9.789914E0,2.5501184E0,5.5205255E0,2.9615326E1,9.775135E0,8.49953E0,1.8283997E0,2.9772415E0,4.4512963E0,1.03613E0,1.03459215E1,1.7140003E1],"tree_param":{"num_deleted":"0","num_feature":"39","num_nodes":"43","size_leaf_vector":"0"}},{"base_weights":[2.1108277E-2,-2.9243937E-1,9.874524E-2,-5.189736E-2,-8.0961066E-1,2.1226487E-1,-2.5416815E-1,-3.9219832E-1,4.166054E-1,-1.6298336E-1,-8.773151E-1,2.9424462E-1,-6.0743815E-1,-4.603649E-1,6.275693E-1,-5.725308E-1,2.4485175E-1,1.0683389E0,-2.7364358E-1,5.5190194E-1,3.7373565E-2,-8.2138956E-1,4.072043E-1,-5.7371986E-1,7.666816E-1,8.48004E-1,-1.08827926E-1,1.2583414E-1,-7.5318575E-1,-3.3776978E-1,7.5219065E-1,-7.186061E-1,4.912241E-1,6.211959E-1,-6.651767E-1,-5.7849073E-1,2.5923353E-1,6.652702E-1,-6.885826E-1,9.529919E-1,2.677276E-1,-8.512006E-1,-5.7657726E-2,3.8927564E-1,1.0718324E0,3.1542552E-1,-7.6790845E-1,1.0839221E0,-5.8404664E-3,1.11877084E-1,-8.345693E-1],"categories":[],"categories_nodes":[],"categories_segments":[],"categories_sizes":[],"default_left":[1,1,1,1,1,1,1,1,1,0,0,1,1,1,1,1,1,0,1,1,1,0,0,1,0,1,0,0,1,0,0,0,0,1,0,1,1,0,1,0,0,0,0,0,0,0,0,0,0,0,0],"id":23,"left_children":[1,3,5,7,9,11,13,15,17,-1,-1,19,21,23,25,27,29,-1,31,33,35,-1,-1,37,-1,39,-1,-1,41,-1,-1,-1,-1,43,-1,45,47,-1,49,-1,-1,-1,-1,-1,-1,-1,-1,-1,-1,-1,-1],"loss_changes":[3.2214108E0,3.2273755E0,4.29528E0,3.1936154E0,2.1927118E-1,5.598111E0,5.0561757E0,1.4641414E0,4.1079392E0,0E0,0E0,4.876247E0,1.9970357E0,3.4759717E0,9.6768975E-1,1.2657692E0,1.2126617E0,0E0,2.0258434E0,3.5222445E0,5.3589473E0,0E0,0E0,3.3832302E0,0E0,4.6391487E-3,0E0,0E0,4.6338463E-1,0E0,0E0,0E0,0E0,3.2820702E0,0E0,2.0041747E0,6.284036E0,0E0,2.348895E0,0E0,0E0,0E0,0E0,0E0,0E0,0E0,0E0,0E0,0E0,0E0,0E0],"parents":[2147483647,0,0,1,1,2,2,3,3,4,4,5,5,6,6,7,7,8,8,11,11,12,12,13,13,14,14,15,15,16,16,18,18,19,19,20,20,23,23,25,25,28,28,33,33,35,35,36,36,38,38],"right_children":[2,4,6,8,10,12,14,16,18,-1,-1,20,22,24,26,28,30,-1,32,34,36,-1,-1,38,-1,40,-1,-1,42,-1,-1,-1,-1,44,-1,46,48,-1,50,-1,-1,-1,-1,-1,-1,-1,-1,-1,-1,-1,-1],"split_conditions":[1.5E0,4.552E3,1.05E1,5.5E0,1.75E1,1.05E1,1.045E2,1.55E1,5.895E2,-4.889501E-2,-2.6319453E-1,7.25E1,8.0952024E-1,1.65E1,2.852452E-1,1.25E1,3.5E0,3.205017E-1,4.325E3,8.553424E-1,1.815E2,-2.4641688E-1,1.2216129E-1,2.5E0,2.3000449E-1,1.45E1,-3.264838E-2,3.7750244E-2,3.1791443E-1,-1.01330936E-1,2.2565721E-1,-2.1558185E-1,1.4736724E-1,1.45E1,-1.9955301E-1,1.05E1,2.645E2,1.9958107E-1,1.0361093E-1,2.8589758E-1,8.031829E-2,-2.553602E-1,-1.7297318E-2,1.16782695E-1,3.2154974E-1,9.4627656E-2,-2.3037255E-1,3.2517666E-1,-1.75214E-3,3.3563126E-2,-2.503708E-1],"split_indices":[19,37,10,37,2,23,2,32,37,0,0,38,15,32,13,16,12,0,37,15,38,0,0,5,0,32,0,0,17,0,0,0,0,32,0,2,38,0,17,0,0,0,0,0,0,0,0,0,0,0,0],"split_type":[0,0,0,0,0,0,0,0,0,0,0,0,0,0,0,0,0,0,0,0,0,0,0,0,0,0,0,0,0,0,0,0,0,0,0,0,0,0,0,0,0,0,0,0,0,0,0,0,0,0,0],"sum_hessian":[1.3014853E2,2.5280989E1,1.0486754E2,1.8006376E1,7.274614E0,7.964661E1,2.5220932E1,1.0524607E1,7.481769E0,1.0124307E0,6.262183E0,7.2988E1,6.658607E0,2.082811E1,4.3928227E0,8.281583E0,2.243024E0,3.5665097E0,3.9152591E0,3.5864834E1,3.7123165E1,5.656351E0,1.002256E0,1.955413E1,1.2739787E0,3.2641635E0,1.128659E0,1.7643851E0,6.5171976E0,1.199624E0,1.0434003E0,2.5135071E0,1.4017521E0,3.4396103E1,1.4687297E0,9.405856E0,2.771731E1,1.2524506E0,1.8301682E1,2.2201674E0,1.0439963E0,5.5160484E0,1.0011489E0,2.3939478E1,1.0456626E1,1.5282713E0,7.8775845E0,5.9905615E0,2.172675E1,2.8590221E0,1.5442658E1],"tree_param":{"num_deleted":"0","num_feature":"39","num_nodes":"51","size_leaf_vector":"0"}},{"base_weights":[1.7074479E-2,-1.2603528E-2,7.8101826E-1,7.636688E-1,-4.125177E-2,-9.239165E-2,3.6358088E-1,-4.8601694E-2,-8.2644665E-1,-5.295879E-1,5.552611E-1,1.9943957E-1,-1.7665274E-1,7.805929E-1,-1.9981042E-1,4.6507218E-1,-2.4510214E-1,1.1761981E-2,-4.199198E-1,1.0510671E0,5.5756114E-2,1.8262193E-1,-5.182748E-1],"categories":[],"categories_nodes":[],"categories_segments":[],"categories_sizes":[],"default_left":[1,1,0,0,1,1,1,1,0,0,1,1,1,1,1,0,0,0,0,0,0,0,0],"id":24,"left_children":[1,3,-1,-1,5,7,9,11,-1,-1,13,15,17,19,21,-1,-1,-1,-1,-1,-1,-1,-1],"loss_changes":[2.7468433E0,2.637662E0,0E0,0E0,2.3930686E0,3.2379878E0,2.517077E0,3.1257918E0,0E0,0E0,2.0579202E0,4.08158E0,2.9706693E0,1.6692176E0,5.045295E-1,0E0,0E0,0E0,0E0,0E0,0E0,0E0,0E0],"parents":[2147483647,0,0,1,1,4,4,5,5,6,6,7,7,10,10,11,11,12,12,13,13,14,14],"right_children":[2,4,-1,-1,6,8,10,12,-1,-1,14,16,18,20,22,-1,-1,-1,-1,-1,-1,-1,-1],"split_conditions":[5E-1,8.25E1,2.3430549E-1,2.2910064E-1,1.065E2,8.3854675E-1,3.7939876E-1,1.55E1,-2.47934E-1,-1.5887639E-1,4.5E0,2.6435E3,1.5E0,4.0125E3,5.5E0,1.3952166E-1,-7.3530644E-2,3.5285945E-3,-1.2597594E-1,3.1532013E-1,1.6726835E-2,5.478658E-2,-1.5548244E-1],"split_indices":[26,0,0,0,2,3,15,16,0,0,4,37,10,37,23,0,0,0,0,0,0,0,0],"split_type":[0,0,0,0,0,0,0,0,0,0,0,0,0,0,0,0,0,0,0,0,0,0,0],"sum_hessian":[1.19719826E2,1.16189545E2,3.530278E0,3.2221887E0,1.1296736E2,1.0098266E2,1.1984704E1,9.630387E1,4.678785E0,1.8060786E0,1.0178625E1,3.2599503E1,6.3704365E1,7.8131804E0,2.365445E0,2.0377123E1,1.2222382E1,3.6435818E1,2.7268549E1,5.362194E0,2.4509864E0,1.2685926E0,1.0968523E0],"tree_param":{"num_deleted":"0","num_feature":"39","num_nodes":"23","size_leaf_vector":"0"}},{"base_weights":[1.3685763E-2,-2.7559257E-1,7.9325326E-2,-3.7489253E-1,6.5439963E-1,1.5651171E-1,-2.968262E-1,-6.265447E-1,-3.6381792E-2,-4.8263814E-2,3.627839E-1,-4.9355817E-1,4.0379527E-1,-7.391134E-1,2.5587562E-1,1.3554366E-1,-6.04074E-1,9.948607E-1,-1.7018662E-1,5.061538E-1,-7.2489065E-1,-6.6710365E-1,2.158806E-1,7.2452617E-1,-1.8263379E-1,-1.9233432E-1,-8.610879E-1,3.2352087E-1,-5.6357807E-1,1.1239127E0,3.267775E-1,-4.9286658E-1,1.09830566E-1,3.0647922E-1,1.255822E0,-7.531053E-1,3.10767E-2,7.450935E-1,-4.7853646E-1,1.397134E-1,-4.4734627E-1,-1.97365E-1,5.719227E-1,-7.415518E-1,6.0813355E-1,8.447473E-1,-1.13445334E-1,1.5178418E-1,1.2191206E0,5.274547E-1,1.8497732E0,-7.965961E-2,-8.206011E-1],"categories":[],"categories_nodes":[],"categories_segments":[],"categories_sizes":[],"default_left":[1,1,1,1,0,1,1,1,1,1,1,1,1,1,0,1,0,1,1,1,0,1,1,0,0,1,0,1,0,0,0,1,1,1,1,1,0,0,0,0,0,0,0,0,0,0,0,0,0,0,0,0,0],"id":25,"left_children":[1,3,5,7,-1,9,11,13,15,17,19,21,23,25,-1,27,-1,29,31,33,-1,35,37,-1,-1,39,-1,41,-1,-1,-1,43,45,47,49,51,-1,-1,-1,-1,-1,-1,-1,-1,-1,-1,-1,-1,-1,-1,-1,-1,-1],"loss_changes":[2.227849E0,2.2501798E0,2.818244E0,1.7023299E0,0E0,3.3910885E0,2.4873233E0,1.3368254E0,1.028305E0,5.378877E0,6.5898314E0,1.7951152E0,9.2026824E-1,5.349345E-1,0E0,1.2677963E0,0E0,1.4912128E-2,3.4451144E0,4.981082E0,0E0,6.8505096E-1,1.6028271E0,0E0,0E0,3.3375633E-1,0E0,1.0373206E0,0E0,0E0,0E0,5.2749596E0,3.5270407E0,3.998204E0,2.1464643E0,3.823781E-1,0E0,0E0,0E0,0E0,0E0,0E0,0E0,0E0,0E0,0E0,0E0,0E0,0E0,0E0,0E0,0E0,0E0],"parents":[2147483647,0,0,1,1,2,2,3,3,5,5,6,6,7,7,8,8,9,9,10,10,11,11,12,12,13,13,15,15,17,17,18,18,19,19,21,21,22,22,25,25,27,27,31,31,32,32,33,33,34,34,35,35],"right_children":[2,4,6,8,-1,10,12,14,16,18,20,22,24,26,-1,28,-1,30,32,34,-1,36,38,-1,-1,40,-1,42,-1,-1,-1,44,46,48,50,52,-1,-1,-1,-1,-1,-1,-1,-1,-1,-1,-1,-1,-1,-1,-1,-1,-1],"split_conditions":[1.5E0,-3.7003515E0,1.5E0,9.5E0,1.963199E-1,2.5E0,1.65E1,1.75E1,4.9445E3,4.45E1,2.5E0,1.685E2,3.44E2,2.5E0,7.676269E-2,2.05E1,-1.812222E-1,1.2571838E-1,5E-1,1.5E0,-2.174672E-1,4.5E0,6.65E2,2.1735786E-1,-5.479014E-2,6.65E1,-2.5832638E-1,7.247449E-1,-1.6907343E-1,3.3717382E-1,9.803325E-2,8.25E1,1.1834734E-2,6.5E0,1.7680098E-1,1.3652715E-1,9.32301E-3,2.2352807E-1,-1.4356095E-1,4.1914023E-2,-1.3420388E-1,-5.9209503E-2,1.7157683E-1,-2.2246556E-1,1.8244007E-1,2.534242E-1,-3.40336E-2,4.5535255E-2,3.657362E-1,1.5823641E-1,5.54932E-1,-2.3897884E-2,-2.4618034E-1],"split_indices":[19,29,31,5,0,4,32,32,37,8,21,38,38,4,0,32,0,11,10,24,0,19,38,0,0,14,0,15,0,0,0,8,11,23,17,17,0,0,0,0,0,0,0,0,0,0,0,0,0,0,0,0,0],"split_type":[0,0,0,0,0,0,0,0,0,0,0,0,0,0,0,0,0,0,0,0,0,0,0,0,0,0,0,0,0,0,0,0,0,0,0,0,0,0,0,0,0,0,0,0,0,0,0,0,0,0,0,0,0],"sum_hessian":[1.1517735E2,2.0709686E1,9.446767E1,1.9251041E1,1.4586449E0,7.8867874E1,1.5599794E1,1.055412E1,8.696921E0,3.9961926E1,3.890595E1,1.241051E1,3.189284E0,9.504102E0,1.050018E0,7.2595925E0,1.4373286E0,3.4327636E0,3.6529163E1,3.4847263E1,4.058685E0,1.0019241E1,2.3912692E0,1.9094667E0,1.2798172E0,2.203453E0,7.3006487E0,6.1446805E0,1.114912E0,2.3051825E0,1.1275809E0,1.6618534E1,1.9910627E1,2.8630365E1,6.2168975E0,8.850385E0,1.1688563E0,1.3156441E0,1.0756251E0,1.1535547E0,1.0498984E0,2.0504513E0,4.094229E0,1.382282E1,2.7957149E0,3.9909425E0,1.5919684E1,2.5478079E1,3.1522863E0,3.6405296E0,2.5763679E0,1.0048288E0,7.845556E0],"tree_param":{"num_deleted":"0","num_feature":"39","num_nodes":"53","size_leaf_vector":"0"}},{"base_weights":[1.5695395E-2,-2.2078412E-2,5.074155E-1,4.562533E-1,-6.445184E-2,3.374039E-2,7.838754E-1,-4.8585483E-1,7.769137E-1,-3.6568943E-1,1.877276E-2,-2.3891056E-1,3.3173886E-1,1.084431E0,1.4879015E-1,-5.110634E-1,4.695981E-1,-8.403005E-2,5.091698E-1,-1.156505E-1,3.712137E-1,-6.015442E-1,4.9289793E-1,3.118789E-2,6.702119E-1,-2.9122445E-1,1.2468883E-1,6.484342E-1,-4.5958373E-1,1.14501834E-1,-7.5107366E-1,-3.870153E-1,3.1060314E-1,9.174102E-1,-8.911156E-2,8.667581E-1,1.4591162E-1],"categories":[],"categories_nodes":[],"categories_segments":[],"categories_sizes":[],"default_left":[1,1,1,1,1,1,0,0,1,1,1,0,0,0,1,1,1,1,1,0,0,1,0,0,0,1,1,1,0,0,0,0,0,0,0,0,0],"id":26,"left_children":[1,3,5,7,9,11,-1,-1,13,15,17,-1,-1,-1,19,21,23,25,27,-1,-1,29,-1,-1,-1,31,33,35,-1,-1,-1,-1,-1,-1,-1,-1,-1],"loss_changes":[2.0461318E0,2.1109803E0,1.0025008E0,2.9396014E0,2.3940287E0,3.9944538E-1,0E0,0E0,1.1351805E0,2.748815E0,3.8519657E0,0E0,0E0,0E0,2.4086165E-1,1.9385905E0,2.9430664E-1,2.774685E0,2.083712E0,0E0,0E0,1.909698E0,0E0,0E0,0E0,1.9694171E0,5.5467715E0,1.1886725E0,0E0,0E0,0E0,0E0,0E0,0E0,0E0,0E0,0E0],"parents":[2147483647,0,0,1,1,2,2,3,3,4,4,5,5,8,8,9,9,10,10,14,14,15,15,16,16,17,17,18,18,21,21,25,25,26,26,27,27],"right_children":[2,4,6,8,10,12,-1,-1,14,16,18,-1,-1,-1,20,22,24,26,28,-1,-1,30,-1,-1,-1,32,34,36,-1,-1,-1,-1,-1,-1,-1,-1,-1],"split_conditions":[5E-1,2.5E0,1.25E1,1.695037E-2,5.5E0,4.55E1,2.3516263E-1,-1.4575645E-1,6.65E1,5E-1,2.1923816E-1,-7.167317E-2,9.952166E-2,3.2532933E-1,1.085E2,5E-1,1.25E1,7.3387897E-1,7.5E0,-3.4695152E-2,1.1136412E-1,1.4124042E-1,1.4786938E-1,9.356367E-3,2.0106359E-1,8.309852E-1,2.5E0,5.020325E-1,-1.3787512E-1,3.435055E-2,-2.2532211E-1,-1.16104595E-1,9.318095E-2,2.7522308E-1,-2.673347E-2,2.6002744E-1,4.3773487E-2],"split_indices":[18,5,32,13,5,37,0,0,38,36,13,0,0,0,0,33,32,9,19,0,0,17,0,0,0,3,30,9,0,0,0,0,0,0,0,0,0],"split_type":[0,0,0,0,0,0,0,0,0,0,0,0,0,0,0,0,0,0,0,0,0,0,0,0,0,0,0,0,0,0,0,0,0,0,0,0,0],"sum_hessian":[1.08557106E2,1.0169966E2,6.857442E0,7.4811716E0,9.421849E1,2.9408147E0,3.916627E0,1.7689077E0,5.7122636E0,1.9660795E1,7.455769E1,1.639266E0,1.3015487E0,3.3471172E0,2.3651466E0,1.7076883E1,2.5839124E0,6.232173E1,1.2235967E1,1.299823E0,1.0653235E0,1.6032776E1,1.044106E0,1.1739311E0,1.4099813E0,3.1076708E1,3.1245022E1,1.0987146E1,1.2488205E0,2.8101528E0,1.3222624E1,2.7117449E1,3.9592595E0,5.9378624E0,2.530716E1,7.1541634E0,3.8329828E0],"tree_param":{"num_deleted":"0","num_feature":"39","num_nodes":"37","size_leaf_vector":"0"}},{"base_weights":[2.0170419E-2,1.8562105E-1,-1.06100306E-1,3.4457892E-1,-2.62189E-1,-1.9742029E-2,-5.9760994E-1,-1.8822178E-2,6.0561633E-1,-6.9408685E-1,3.418813E-1,-4.1249982E-1,1.04808256E-1,-1.7006475E-2,-1.1245687E0,1.7768636E-1,-7.1432537E-1,2.4476151E-1,1.1091099E0,-8.4534794E-1,-1.7612183E-1,-5.2819216E-1,7.673222E-1,-7.7859855E-1,2.0414105E-1,2.9058E-1,-4.8606268E-1,5.903776E-1,-6.0145175E-1,-1.6237757E0,-4.6969992E-1,4.431806E-1,-2.2491099E-1,-1.0142003E-1,7.653816E-1,1.6680641E0,3.8080412E-1,9.8079604E-1,1.6729446E-1,-8.929709E-1,-3.6593962E-1,-5.191134E-1,8.994007E-1,4.8233095E-1,-2.5589517E-1,-6.540876E-1,3.8409504E-1,7.805914E-1,1.1527183E-1,-1.1806319E-1,-5.659335E-1,7.481743E-1,-3.23732E-1,-5.676338E-1,2.5279763E-1,-5.355653E-1,6.599971E-1,9.4932175E-1,1.1227797E-2,2.0595708E0,4.436743E-1,7.1326786E-1,-2.3384778E-1,1.0950724E-1,-6.0235614E-1,1.3434863E0,1.0034514E-2,7.1939665E-1,-2.0253283E-1,-7.545297E-1,3.261129E-1,-8.229782E-1,2.5144836E-1],"categories":[],"categories_nodes":[],"categories_segments":[],"categories_sizes":[],"default_left":[1,1,1,1,1,1,1,1,1,1,1,1,1,1,1,1,0,1,1,0,0,0,1,1,1,1,1,1,0,0,1,1,1,1,1,1,1,0,0,0,1,0,1,1,1,1,0,0,0,0,0,0,0,0,0,0,0,0,0,0,0,0,0,0,0,0,0,0,0,0,0,0,0],"id":27,"left_children":[1,3,5,7,9,11,13,15,17,19,21,23,25,27,29,31,-1,33,35,-1,-1,-1,37,39,41,43,45,47,-1,-1,49,51,53,55,57,59,61,-1,-1,-1,63,-1,65,67,69,71,-1,-1,-1,-1,-1,-1,-1,-1,-1,-1,-1,-1,-1,-1,-1,-1,-1,-1,-1,-1,-1,-1,-1,-1,-1,-1,-1],"loss_changes":[2.2100642E0,3.3466368E0,2.5391707E0,3.2550263E0,3.512079E0,2.5944104E0,2.7183216E0,2.213078E0,3.3494806E0,4.5040464E-1,2.590363E0,3.0393162E0,4.5750604E0,2.2266586E0,7.6562405E-1,1.4573681E0,0E0,2.4011993E0,2.6366282E0,0E0,0E0,0E0,3.9595008E-1,6.0884953E-2,3.2553852E0,3.4092236E0,1.7185898E0,1.892736E-1,0E0,0E0,4.922533E-2,2.1113377E0,1.078521E0,3.2050688E0,7.198255E-1,1.1241703E0,1.1447537E0,0E0,0E0,0E0,4.567677E-1,0E0,1.2477546E0,3.9706397E0,2.799374E0,1.5499883E0,0E0,0E0,0E0,0E0,0E0,0E0,0E0,0E0,0E0,0E0,0E0,0E0,0E0,0E0,0E0,0E0,0E0,0E0,0E0,0E0,0E0,0E0,0E0,0E0,0E0,0E0,0E0],"parents":[2147483647,0,0,1,1,2,2,3,3,4,4,5,5,6,6,7,7,8,8,9,9,10,10,11,11,12,12,13,13,14,14,15,15,17,17,18,18,22,22,23,23,24,24,25,25,26,26,27,27,30,30,31,31,32,32,33,33,34,34,35,35,36,36,40,40,42,42,43,43,44,44,45,45],"right_children":[2,4,6,8,10,12,14,16,18,20,22,24,26,28,30,32,-1,34,36,-1,-1,-1,38,40,42,44,46,48,-1,-1,50,52,54,56,58,60,62,-1,-1,-1,64,-1,66,68,70,72,-1,-1,-1,-1,-1,-1,-1,-1,-1,-1,-1,-1,-1,-1,-1,-1,-1,-1,-1,-1,-1,-1,-1,-1,-1,-1,-1],"split_conditions":[5.55E1,5E-1,5E-1,1.721021E-1,3.5E0,1.05E1,3.5E0,1.5E0,1.8963592E-1,1.35E1,-4.8844376E0,3.3E1,3.335E2,6.5468967E-1,1.5E1,8.96E2,-2.1429762E-1,5E-1,2.5E0,-2.5360438E-1,-5.2836552E-2,-1.5845765E-1,2.55E1,9.5E0,7.5E0,4.566E3,6.5E0,6.45E1,-1.8043554E-1,-4.8713273E-1,8.708291E-2,3.5E0,9.75E1,2.5E0,5.8685E3,1.5E0,3.5E0,2.9423884E-1,5.018834E-2,-2.678913E-1,-4.711749E0,-1.5573403E-1,5.75E1,1.9773832E-1,6.733E3,1.605E2,1.1522852E-1,2.3417744E-1,3.458155E-2,-3.5418957E-2,-1.6978006E-1,2.244523E-1,-9.71196E-2,-1.7029014E-1,7.5839296E-2,-1.606696E-1,1.9799913E-1,2.8479654E-1,3.3683393E-3,6.178713E-1,1.331023E-1,2.1398036E-1,-7.015434E-2,3.2852173E-2,-1.8070684E-1,4.0304592E-1,3.0103542E-3,2.15819E-1,-6.075985E-2,-2.2635892E-1,9.783387E-2,-2.4689347E-1,7.543451E-2],"split_indices":[2,21,22,17,19,32,19,27,3,32,29,37,38,3,12,37,0,10,19,0,0,0,16,5,5,37,4,2,0,0,11,4,0,19,37,27,4,0,0,0,29,0,8,17,37,0,0,0,0,0,0,0,0,0,0,0,0,0,0,0,0,0,0,0,0,0,0,0,0,0,0,0,0],"split_type":[0,0,0,0,0,0,0,0,0,0,0,0,0,0,0,0,0,0,0,0,0,0,0,0,0,0,0,0,0,0,0,0,0,0,0,0,0,0,0,0,0,0,0,0,0,0,0,0,0,0,0,0,0,0,0,0,0,0,0,0,0,0,0,0,0,0,0,0,0,0,0,0,0],"sum_hessian":[1.03844666E2,4.4745407E1,5.909926E1,3.319337E1,1.1552033E1,5.115201E1,7.947246E0,1.4263897E1,1.8929476E1,6.6490693E0,4.902964E0,1.1759044E1,3.9392967E1,4.2722983E0,3.6749477E0,1.1702091E1,2.5618057E0,1.189234E1,7.0371356E0,4.6570244E0,1.9920449E0,1.5307976E0,3.3721666E0,7.21366E0,4.545384E0,3.0356882E1,9.036086E0,2.0900578E0,2.1822405E0,1.2457602E0,2.4291875E0,6.9910293E0,4.7110624E0,7.626417E0,4.265922E0,3.2514243E0,3.7857113E0,2.0192034E0,1.3529633E0,4.7368517E0,2.4768083E0,2.3520162E0,2.1933675E0,2.2558708E1,7.798174E0,7.781762E0,1.254324E0,1.0333573E0,1.0567005E0,1.0004375E0,1.42875E0,5.0193253E0,1.9717039E0,2.63348E0,2.0775821E0,5.04594E0,2.580477E0,3.2214189E0,1.0445033E0,1.9468015E0,1.3046228E0,2.3526998E0,1.4330117E0,1.0008488E0,1.4759595E0,1.1223404E0,1.0710272E0,1.6720486E1,5.8382225E0,4.0402613E0,3.7579126E0,6.6353745E0,1.1463873E0],"tree_param":{"num_deleted":"0","num_feature":"39","num_nodes":"73","size_leaf_vector":"0"}},{"base_weights":[1.1564509E-2,-2.9652014E-1,7.889313E-2,-4.0175486E-1,5.256014E-1,1.2669583E-1,-5.713678E-1,-4.784447E-1,2.9337153E-1,1.9708511E-1,-3.9889577E-1,1.3390209E-1,-7.6959234E-1,2.0892185E-1,-5.503927E-1,2.9650322E-1,-1.7793818E-1,-8.064503E-1,2.724919E-1,-6.8792814E-1,-2.627609E-1,4.1619065E-1,-1.5818784E-1,-3.8383666E-1,4.1746742E-1,-8.812061E-1,-2.2879288E-1,5.828737E-1,-1.8004893E-1,-1.5861534E-1,-7.622016E-1,2.89997E-2,-4.3980962E-1,2.4716716E-1,1.1571428E0,4.9887308E-1,-5.7040733E-1,2.083645E-1,-6.757961E-1,-3.523329E-1,8.372044E-1],"categories":[],"categories_nodes":[],"categories_segments":[],"categories_sizes":[],"default_left":[1,1,1,1,0,1,1,1,0,1,1,0,0,0,1,1,1,1,1,1,1,1,1,1,1,0,0,0,0,0,0,0,0,0,0,0,0,0,0,0,0],"id":28,"left_children":[1,3,5,7,-1,9,11,13,-1,15,17,-1,-1,-1,19,21,23,25,27,29,31,33,35,37,39,-1,-1,-1,-1,-1,-1,-1,-1,-1,-1,-1,-1,-1,-1,-1,-1],"loss_changes":[2.0315983E0,1.731529E0,2.5666108E0,1.0010848E0,0E0,2.8741994E0,8.9660716E-1,8.52936E-1,0E0,2.5623171E0,2.7522655E0,0E0,0E0,0E0,3.644867E-1,2.9816852E0,1.9659634E0,5.799675E-2,7.00992E-1,2.213831E-1,3.2664633E-1,5.0604515E0,3.5048392E0,2.1232014E0,1.6726665E0,0E0,0E0,0E0,0E0,0E0,0E0,0E0,0E0,0E0,0E0,0E0,0E0,0E0,0E0,0E0,0E0],"parents":[2147483647,0,0,1,1,2,2,3,3,5,5,6,6,7,7,9,9,10,10,14,14,15,15,16,16,17,17,18,18,19,19,20,20,21,21,22,22,23,23,24,24],"right_children":[2,4,6,8,-1,10,12,14,-1,16,18,-1,-1,-1,20,22,24,26,28,30,32,34,36,38,40,-1,-1,-1,-1,-1,-1,-1,-1,-1,-1,-1,-1,-1,-1,-1,-1],"split_conditions":[1.5E0,-3.7520616E0,1.05E1,1.25E1,1.5768042E-1,2.5E0,1.7509124E-1,1.05E1,8.801146E-2,1.15E1,2.5E0,4.017063E-2,-2.3087771E-1,6.267656E-2,-4.3046646E0,-4.3498125E0,8.29164E-1,3.5E0,1.3655463E-1,1.25E1,-4.180501E0,-4.484297E0,5E-1,-5.1009464E0,2.5E0,-2.6436183E-1,-6.863786E-2,1.7486212E-1,-5.401468E-2,-4.7584604E-2,-2.286605E-1,8.69991E-3,-1.319429E-1,7.415015E-2,3.4714285E-1,1.4966193E-1,-1.7112221E-1,6.250935E-2,-2.0273884E-1,-1.05699874E-1,2.5116134E-1],"split_indices":[19,29,23,23,0,27,17,16,0,10,19,0,0,0,29,29,3,30,13,16,29,29,23,29,30,0,0,0,0,0,0,0,0,0,0,0,0,0,0,0,0],"split_type":[0,0,0,0,0,0,0,0,0,0,0,0,0,0,0,0,0,0,0,0,0,0,0,0,0,0,0,0,0,0,0,0,0,0,0,0,0,0,0,0,0],"sum_hessian":[9.581401E1,1.6573294E1,7.924072E1,1.5145882E1,1.4274118E0,7.456442E1,4.6763E0,1.3921687E1,1.2241949E0,6.6309074E1,8.255349E0,1.0971621E0,3.5791378E0,1.1387424E0,1.2782945E1,5.257966E1,1.372941E1,5.0118318E0,3.2435172E0,7.7063427E0,5.0766015E0,4.169028E1,1.08893795E1,1.0465611E1,3.2637994E0,3.972288E0,1.0395437E0,1.753115E0,1.4904021E0,1.3341342E0,6.3722086E0,2.233008E0,2.8435938E0,3.503239E1,6.657891E0,4.1169376E0,6.7724414E0,3.550406E0,6.9152055E0,1.2083198E0,2.0554795E0],"tree_param":{"num_deleted":"0","num_feature":"39","num_nodes":"41","size_leaf_vector":"0"}},{"base_weights":[2.9349192E-3,-2.089347E-2,6.979485E-1,1.0864005E-3,-9.723604E-1,8.255216E-2,-2.307392E-1,-1.955749E-1,1.9148153E-1,4.4583702E-1,-4.136638E-1,-6.154697E-1,1.757401E-1,3.7817863E-1,-8.5775465E-2,-1.2444974E-1,7.376326E-1,-8.413106E-1,-1.9821891E-1,-7.7769727E-1,2.4413021E-2,4.19537E-1,-3.2169673E-1,6.52499E-1,-2.6804575E-1,-7.2885233E-1,2.4267696E-1,9.395462E-1,9.570583E-2,-1.0689355E0,1.20965816E-1,-3.8919514E-1,2.8248036E-1],"categories":[],"categories_nodes":[],"categories_segments":[],"categories_sizes":[],"default_left":[1,1,0,1,0,1,1,1,1,1,1,1,1,1,1,0,1,1,1,0,0,0,0,0,0,0,0,0,0,0,0,0,0],"id":29,"left_children":[1,3,-1,5,-1,7,9,11,13,15,17,19,21,23,25,-1,27,29,31,-1,-1,-1,-1,-1,-1,-1,-1,-1,-1,-1,-1,-1,-1],"loss_changes":[1.5485528E0,1.8942316E0,0E0,1.7089648E0,0E0,2.065758E0,3.0967188E0,3.122942E0,2.5487976E0,1.0052687E0,1.5876527E0,9.840379E-1,1.4737793E0,5.3576064E0,4.4809523E0,0E0,3.9946294E-1,1.459105E0,1.3924935E0,0E0,0E0,0E0,0E0,0E0,0E0,0E0,0E0,0E0,0E0,0E0,0E0,0E0,0E0],"parents":[2147483647,0,0,1,1,3,3,5,5,6,6,7,7,8,8,9,9,10,10,11,11,12,12,13,13,14,14,16,16,17,17,18,18],"right_children":[2,4,-1,6,-1,8,10,12,14,16,18,20,22,24,26,-1,28,30,32,-1,-1,-1,-1,-1,-1,-1,-1,-1,-1,-1,-1,-1,-1],"split_conditions":[2.35E1,2.25E1,2.0938456E-1,1.05E1,-2.917081E-1,6.501231E-1,5.45E1,2.4188277E-1,1.74E3,1.75E1,1.5E0,7.801099E-1,1.05E1,7.864623E-1,1.145E2,-3.7334923E-2,1.95E1,3.5E0,1.7927781E-1,-2.333092E-1,7.3239068E-3,1.2586111E-1,-9.6509025E-2,1.9574971E-1,-8.041373E-2,-2.186557E-1,7.280309E-2,2.8186387E-1,2.871175E-2,-3.2068068E-1,3.6289748E-2,-1.1675855E-1,8.474411E-2],"split_indices":[32,32,0,5,0,15,8,13,37,5,4,3,10,3,38,0,10,27,17,0,0,0,0,0,0,0,0,0,0,0,0,0,0],"split_type":[0,0,0,0,0,0,0,0,0,0,0,0,0,0,0,0,0,0,0,0,0,0,0,0,0,0,0,0,0,0,0,0,0],"sum_hessian":[9.162516E1,8.952573E1,2.099432E0,8.848059E1,1.045135E0,6.594928E1,2.253131E1,1.8336264E1,4.7613018E1,4.4893713E0,1.8041939E1,8.29663E0,1.0039634E1,2.8235813E1,1.9377205E1,1.7136697E0,2.7757013E0,5.0710926E0,1.2970846E1,6.4468136E0,1.8498168E0,6.842623E0,3.1970103E0,1.9814785E1,8.421029E0,6.138868E0,1.3238337E1,1.7588366E0,1.0168648E0,4.0113697E0,1.0597231E0,9.419103E0,3.5517435E0],"tree_param":{"num_deleted":"0","num_feature":"39","num_nodes":"33","size_leaf_vector":"0"}},{"base_weights":[-5.523271E-3,-2.9915692E-2,6.0725284E-1,1.8026186E-2,-3.3990544E-1,4.5040414E-2,-6.704298E-1,-4.9771377E-1,2.2874658E-1,-2.215182E-1,1.1791452E-1,-6.1168027E-1,7.867611E-2,5.748355E-1,-2.2425021E-1,-4.9646342E-1,1.8528576E-1,3.542353E-2,5.4465467E-1,-2.7532274E-1,-7.636123E-1,1.5349573E-1,-6.7979795E-1,5.5153406E-1,-4.506339E-1,-1.8976769E-1,2.6458684E-1,7.0823133E-1,-3.135699E-1,-5.372357E-1,2.2072896E-1],"categories":[],"categories_nodes":[],"categories_segments":[],"categories_sizes":[],"default_left":[1,1,0,1,1,1,0,1,1,1,1,1,0,0,0,1,1,1,1,1,0,0,0,0,0,0,0,0,0,0,0],"id":30,"left_children":[1,3,-1,5,7,9,-1,11,13,15,17,19,-1,-1,-1,21,23,25,27,29,-1,-1,-1,-1,-1,-1,-1,-1,-1,-1,-1],"loss_changes":[1.3545821E0,1.2981848E0,0E0,1.4482042E0,1.1633568E0,1.4694722E0,0E0,6.70172E-1,6.346177E-1,1.9150984E0,2.0577502E0,1.9962311E-1,0E0,0E0,0E0,1.2957025E0,1.9491667E0,2.6570532E0,1.5541196E0,6.4598584E-1,0E0,0E0,0E0,0E0,0E0,0E0,0E0,0E0,0E0,0E0,0E0],"parents":[2147483647,0,0,1,1,3,3,4,4,5,5,7,7,8,8,9,9,10,10,11,11,15,15,16,16,17,17,18,18,19,19],"right_children":[2,4,-1,6,8,10,-1,12,14,16,18,20,-1,-1,-1,22,24,26,28,30,-1,-1,-1,-1,-1,-1,-1,-1,-1,-1,-1],"split_conditions":[5E-1,1.5E0,1.8217586E-1,9.559E3,1.65E1,1.5E0,-2.0112896E-1,1.685E2,3.44E2,5E-1,5E-1,5E-1,2.3602834E-2,1.7245065E-1,-6.727507E-2,4.893424E-1,1.15E1,7.5E0,2.5E0,5E-1,-2.2908369E-1,4.604872E-2,-2.039394E-1,1.6546023E-1,-1.3519017E-1,-5.6930307E-2,7.937606E-2,2.1246941E-1,-9.407098E-2,-1.611707E-1,6.621869E-2],"split_indices":[26,31,0,37,32,4,0,38,38,27,36,10,0,0,0,9,2,5,27,24,0,0,0,0,0,0,0,0,0,0,0],"split_type":[0,0,0,0,0,0,0,0,0,0,0,0,0,0,0,0,0,0,0,0,0,0,0,0,0,0,0,0,0,0,0],"sum_hessian":[8.8409744E1,8.5939964E1,2.469782E0,7.5244736E1,1.0695227E1,7.3302986E1,1.9417479E0,8.469561E0,2.2256653E0,1.5299779E1,5.800321E1,7.0202565E0,1.4493046E0,1.1092434E0,1.1164219E0,8.997959E0,6.30182E0,4.951477E1,8.4884405E0,3.0593655E0,3.9608908E0,2.0154665E0,6.982493E0,4.082985E0,2.2188349E0,2.5060528E1,2.445424E1,7.276348E0,1.2120923E0,1.9478738E0,1.1114918E0],"tree_param":{"num_deleted":"0","num_feature":"39","num_nodes":"31","size_leaf_vector":"0"}},{"base_weights":[-7.9160975E-3,-1.1971927E-1,1.1630896E-1,-3.7705708E-1,1.273739E-1,1.2004818E0,-6.2856555E-2,-8.890732E-2,-6.8780977E-1,3.9423496E-1,-2.8684106E-1,1.3677577E0,4.3579942E-1,-5.629891E-1,4.440383E-2,3.6193883E-1,-5.3710294E-1,1.6974693E-2,-8.71507E-1,5.737893E-1,-6.0210824E-1,3.9997497E-1,-5.507607E-1,-7.1053654E-1,1.4311061E-2,-1.2116717E-1,6.653311E-1,-1.1428915E-1,1.2403806E0,-1.8939872E-1,-7.372452E-1,-3.6986884E-1,4.212647E-1,6.9951594E-1,-8.3712555E-2,-1.3108087E-1,7.777802E-1,1.7162883E-1,-1.0374403E0,-2.1676078E-1,6.3836396E-1,-5.791123E-1,1.0611057E0,3.7621355E-1,-4.705541E-1,-4.407368E-1,2.520402E-1,8.529543E-1,-3.1033257E-1,1.328208E-1,-2.565169E-1,5.298973E-1,-1.6048032E-1,5.0987214E-2,-1.3500711E0,-4.9901038E-1,9.33442E-2,1.6964386E0,2.7202263E-1],"categories":[],"categories_nodes":[],"categories_segments":[],"categories_sizes":[],"default_left":[1,1,1,1,1,1,1,1,1,1,1,0,0,1,1,1,1,1,0,1,0,1,1,0,0,1,1,1,0,1,0,0,0,1,1,0,0,1,1,1,0,0,1,0,0,0,0,0,0,0,0,0,0,0,0,0,0,0,0],"id":31,"left_children":[1,3,5,7,9,11,13,15,17,19,21,-1,-1,23,25,27,29,31,-1,33,-1,35,37,-1,-1,39,41,43,-1,45,-1,-1,-1,47,49,-1,-1,51,53,55,-1,-1,57,-1,-1,-1,-1,-1,-1,-1,-1,-1,-1,-1,-1,-1,-1,-1,-1],"loss_changes":[1.2093747E0,2.9599266E0,8.093732E0,1.970109E0,2.778117E0,1.5911579E-1,1.9763141E0,2.8048754E0,1.4086108E0,3.044E0,2.0375674E0,0E0,0E0,5.6354475E-1,3.2551467E0,3.0859447E0,3.3922136E-1,6.573421E-1,0E0,1.1574216E0,0E0,7.765591E-1,2.8722305E0,0E0,0E0,1.9697871E0,3.8919542E0,1.1345352E0,0E0,5.3930074E-1,0E0,0E0,0E0,2.0103526E0,1.4733256E-1,0E0,0E0,5.541549E-1,1.6751218E0,2.072888E0,0E0,0E0,2.246646E0,0E0,0E0,0E0,0E0,0E0,0E0,0E0,0E0,0E0,0E0,0E0,0E0,0E0,0E0,0E0,0E0],"parents":[2147483647,0,0,1,1,2,2,3,3,4,4,5,5,6,6,7,7,8,8,9,9,10,10,13,13,14,14,15,15,16,16,17,17,19,19,21,21,22,22,25,25,26,26,27,27,29,29,33,33,34,34,37,37,38,38,39,39,42,42],"right_children":[2,4,6,8,10,12,14,16,18,20,22,-1,-1,24,26,28,30,32,-1,34,-1,36,38,-1,-1,40,42,44,-1,46,-1,-1,-1,48,50,-1,-1,52,54,56,-1,-1,58,-1,-1,-1,-1,-1,-1,-1,-1,-1,-1,-1,-1,-1,-1,-1,-1],"split_conditions":[2.5E0,1.25E1,1.74E3,1.85E1,9.5E0,1.55E1,1.5E0,7.853303E-1,9.8524556E-2,3.135E2,2.8708791E-2,4.1032732E-1,1.3073984E-1,6.25E1,8.153757E-1,3.5E0,1.3845587E-1,6.6245794E-1,-2.614521E-1,2.55E1,-1.8063247E-1,1.6081691E-1,7.15E1,-2.1316098E-1,4.2933184E-3,1.85E1,5.5E0,1.35E1,3.721142E-1,1.25E1,-2.2117357E-1,-1.10960655E-1,1.2637942E-1,5.5E0,1.55E1,-3.932426E-2,2.3333406E-1,1.45E1,7.291477E-1,1.5E0,1.915092E-1,-1.737337E-1,1.85E1,1.1286407E-1,-1.4116624E-1,-1.3222104E-1,7.561207E-2,2.5588632E-1,-9.309977E-2,3.984624E-2,-7.695507E-2,1.589692E-1,-4.81441E-2,1.5296165E-2,-4.0502134E-1,-1.4970312E-1,2.800326E-2,5.089316E-1,8.160679E-2],"split_indices":[37,32,37,16,5,5,19,3,3,38,13,0,0,5,3,23,17,9,0,16,0,17,8,0,0,32,5,16,0,16,0,0,0,23,10,0,0,16,15,24,0,0,16,0,0,0,0,0,0,0,0,0,0,0,0,0,0,0,0],"split_type":[0,0,0,0,0,0,0,0,0,0,0,0,0,0,0,0,0,0,0,0,0,0,0,0,0,0,0,0,0,0,0,0,0,0,0,0,0,0,0,0,0,0,0,0,0,0,0,0,0,0,0,0,0,0,0,0,0,0,0],"sum_hessian":[8.507325E1,4.4794365E1,4.027888E1,2.1684668E1,2.3109697E1,4.9038887E0,3.5374992E1,1.1918851E1,9.765817E0,1.4084129E1,9.025569E0,3.376591E0,1.5272976E0,5.4966173E0,2.9878376E1,6.0377994E0,5.881052E0,2.2067714E0,7.5590453E0,1.2292891E1,1.7912382E0,2.3623488E0,6.66322E0,4.1939325E0,1.3026848E0,2.4223904E1,5.654472E0,4.4793262E0,1.5584731E0,2.8595386E0,3.0215135E0,1.1712267E0,1.0355445E0,1.026595E1,2.026941E0,1.2534721E0,1.1088767E0,2.9426804E0,3.7205393E0,2.2150663E1,2.0732417E0,1.2526133E0,4.401859E0,1.8610516E0,2.6182745E0,1.8231174E0,1.0364212E0,9.046735E0,1.2192147E0,1.0023375E0,1.0246036E0,1.1290965E0,1.8135839E0,1.0169445E0,2.703595E0,1.1277241E1,1.0873422E1,1.8014942E0,2.6003642E0],"tree_param":{"num_deleted":"0","num_feature":"39","num_nodes":"59","size_leaf_vector":"0"}},{"base_weights":[-3.4642385E-3,-3.842924E-2,4.5062992E-1,3.505047E-1,-7.17331E-2,5.833959E-2,6.9671065E-1,-3.6951795E-1,5.6875175E-1,-3.4547374E-1,-4.0817116E-3,-1.648992E-1,2.7711082E-1,7.6493E-1,9.3121685E-2,-4.5038235E-1,2.3471501E-1,-1.7345902E-1,1.872108E-1,-3.8506392E-2,-6.699279E-1,-4.489491E-2,-8.828555E-1,5.461563E-1,-6.249526E-2,4.2367765E-1,-3.8910845E-1,3.0829847E-2,-7.8922695E-1,-1.9224773E-1,2.7024093E-1,-3.9123023E-1,-1.3326486E0,2.193937E-1,1.0689964E0,-3.877007E-1,2.3742586E-1],"categories":[],"categories_nodes":[],"categories_segments":[],"categories_sizes":[],"default_left":[1,1,1,1,1,1,0,0,1,1,1,0,0,0,0,1,0,1,1,1,1,1,1,1,1,0,0,0,0,0,0,0,0,0,0,0,0],"id":32,"left_children":[1,3,5,7,9,11,-1,-1,13,15,17,-1,-1,-1,-1,19,-1,21,23,25,27,29,31,33,35,-1,-1,-1,-1,-1,-1,-1,-1,-1,-1,-1,-1],"loss_changes":[1.2907877E0,1.0017157E0,5.205022E-1,1.1713328E0,1.3000456E0,2.0843188E-1,0E0,0E0,4.034853E-1,9.526353E-1,1.8910587E0,0E0,0E0,0E0,0E0,1.0707283E0,0E0,2.7824695E0,2.4917674E0,1.0200036E0,6.8050456E-1,1.3173045E0,5.1658297E-1,1.704869E0,1.7567627E0,0E0,0E0,0E0,0E0,0E0,0E0,0E0,0E0,0E0,0E0,0E0,0E0],"parents":[2147483647,0,0,1,1,2,2,3,3,4,4,5,5,8,8,9,9,10,10,15,15,17,17,18,18,19,19,20,20,21,21,22,22,23,23,24,24],"right_children":[2,4,6,8,10,12,-1,-1,14,16,18,-1,-1,-1,-1,20,-1,22,24,26,28,30,32,34,36,-1,-1,-1,-1,-1,-1,-1,